dense/kernel:0
(784, 128)
[[-7.83814564e-02  4.35426012e-02  3.02025750e-02  7.95412436e-02
  -1.86442882e-02  2.46844292e-02 -4.90229204e-02  1.09162182e-02
   5.00128046e-02  6.10582456e-02  8.03013667e-02 -7.67930821e-02
  -4.46459651e-03 -3.83606516e-02 -1.36437342e-02 -7.50004649e-02
   5.66991344e-02 -6.33160323e-02  6.85070828e-02  7.24247172e-02
   4.60266396e-02  3.55103612e-03 -3.88052315e-03  5.43828532e-02
  -5.79594560e-02  5.88319674e-02  3.97457406e-02 -6.90388903e-02
   1.97184682e-02  3.71869132e-02 -5.30764200e-02 -1.09155402e-02
   6.28239661e-03 -6.39893487e-02  7.74034783e-02 -4.61126976e-02
  -5.41187935e-02 -3.41408774e-02 -7.41925687e-02  2.14580074e-02
  -5.11369035e-02  1.39489099e-02 -7.98427761e-02 -6.11452088e-02
  -4.06922512e-02 -2.10674144e-02  7.92542920e-02 -2.12382860e-02
   2.71972120e-02  3.45954821e-02  4.08430398e-03  4.14723754e-02
   3.49961743e-02 -6.99659288e-02 -5.38382903e-02  3.70013192e-02
  -7.58676231e-03 -2.37933993e-02 -4.77403067e-02  5.35020158e-02
  -3.09826434e-02 -5.65898418e-02 -3.88740636e-02  1.49955526e-02
  -6.57817423e-02 -5.84284887e-02  5.49942255e-03 -3.30026634e-02
  -2.22827494e-02  1.85504407e-02  1.70971677e-02  4.61150333e-02
   7.16757998e-02 -3.83451208e-02  7.14284256e-02 -2.76315473e-02
  -7.02162236e-02 -5.24499267e-03 -4.99428585e-02  7.08362088e-02
   4.48867902e-02 -3.48238125e-02 -7.24491626e-02  5.94894961e-02
  -1.80793554e-02 -5.00248149e-02 -2.89550610e-02  3.22670937e-02
  -7.72547647e-02 -4.95659187e-02 -5.64549342e-02 -1.94285810e-03
   7.02854171e-02  7.95953795e-02  6.93812892e-02  4.64590415e-02
  -1.68223307e-02 -7.31511042e-02  6.39817640e-02  5.02105430e-02
  -5.65820113e-02  4.37119678e-02  7.51646087e-02 -1.64848790e-02
  -4.24988344e-02  4.11187932e-02 -2.12756880e-02  3.28492001e-02
   5.59625700e-02 -7.92428777e-02  4.86736819e-02  4.31018993e-02
   1.91926435e-02  3.92434821e-02 -6.07860014e-02 -4.29845527e-02
  -3.85823846e-02  6.21647760e-02 -3.56774814e-02 -4.21166494e-02
   5.21432236e-02 -1.12396926e-02  5.71546778e-02  8.33481550e-04
   7.93408230e-02 -7.32579082e-02  1.85752511e-02 -6.02679700e-03]
 [ 2.16581225e-02  4.76149991e-02  7.35577419e-02  3.21512371e-02
   5.94598427e-02  3.69388610e-02  3.14701274e-02 -7.96429515e-02
  -3.65577973e-02  1.39161944e-03 -1.35981292e-03  7.05207884e-03
   2.86021084e-03 -5.60675524e-02  3.08248028e-02 -2.21427605e-02
   2.24724784e-02 -1.81963742e-02 -4.68665361e-03 -7.87947327e-02
   6.37911335e-02 -4.40209508e-02  7.02962279e-05 -4.47241515e-02
   1.82656199e-03  3.81631404e-03 -6.13585301e-02  2.87188813e-02
   4.90914509e-02  3.11779603e-02 -2.28195600e-02  2.76961997e-02
  -3.03617865e-02  2.55318582e-02 -5.87536022e-02 -6.45501614e-02
   7.60514364e-02  2.99164429e-02 -2.34551728e-02 -2.67338753e-03
   4.27683294e-02  2.36639082e-02  1.62073895e-02 -1.44370645e-02
   5.55757955e-02 -3.81567292e-02 -6.31636828e-02  6.97327480e-02
   4.37747389e-02  7.57325664e-02 -1.79290771e-02  1.92416459e-02
  -5.08672521e-02  2.89240256e-02 -4.79777418e-02  2.38936394e-03
  -4.06019986e-02  5.53879216e-02 -1.84903294e-03 -7.13778362e-02
   5.81156537e-02 -5.17042130e-02  5.78032956e-02 -4.63720635e-02
   8.76817852e-03 -6.18092716e-04 -8.92385095e-03 -3.68285924e-02
  -8.03098083e-04  3.49467471e-02  7.70205185e-02  1.44893155e-02
   5.11747375e-02  7.23391101e-02 -5.93272150e-02  6.63055554e-02
  -3.70225757e-02  8.00415352e-02  2.88230628e-02  1.99931934e-02
   4.08833101e-02 -7.87700564e-02  3.00572067e-02  7.68144950e-02
   2.45623291e-03 -5.56279942e-02 -6.52873591e-02 -5.09996600e-02
  -5.11420295e-02 -7.97483623e-02 -5.55901453e-02 -4.80050482e-02
   1.28614008e-02  8.49340111e-03  5.63891232e-03  3.22792009e-02
  -7.68384710e-02 -9.47346538e-03  2.45228410e-02 -2.15267390e-02
  -4.74658944e-02 -5.45872822e-02 -5.28813377e-02  7.40299299e-02
  -3.62268612e-02  1.98990330e-02  7.08435848e-02 -1.24884620e-02
   6.08847812e-02 -3.33376639e-02  4.15349007e-02 -3.47417593e-02
   6.07565716e-02  3.96443456e-02  5.94336018e-02  5.33836409e-02
   4.35191244e-02  3.03963050e-02  2.67737210e-02 -6.52516186e-02
   3.01210880e-02 -1.67557448e-02  3.48652750e-02 -1.66123360e-02
  -6.10082746e-02 -5.19115403e-02  6.83500990e-02 -5.79758175e-02]
 [ 3.87541205e-03 -6.48293123e-02 -2.87924856e-02  5.56927398e-02
   1.20305270e-02  5.97881004e-02 -5.24730086e-02  3.03918198e-02
   3.28744128e-02  6.12809286e-02 -3.26262414e-03  1.46102905e-03
   6.56085834e-02  3.27784792e-02  7.94314519e-02  5.78850880e-02
  -5.03992662e-02 -4.97626290e-02 -3.88286561e-02  3.09280306e-02
  -2.97084451e-03  2.82620564e-02 -7.67119378e-02 -7.54032210e-02
  -5.53009622e-02  7.31841102e-02 -3.05528492e-02  3.02811861e-02
  -5.68574667e-03 -4.87593971e-02  9.75967199e-03  4.31280434e-02
  -1.68220177e-02 -7.17286766e-02 -2.19072178e-02  4.18384522e-02
   3.24580595e-02 -3.52292955e-02  6.86758384e-02  3.81752700e-02
   4.34146971e-02  6.97986707e-02 -5.97649962e-02  1.73155889e-02
  -5.49341924e-02 -2.27899551e-02  7.33565167e-02  6.98333010e-02
  -4.85716611e-02 -3.73388343e-02  4.25875410e-02 -3.32214013e-02
  -7.58470148e-02 -5.17811030e-02  6.91768155e-02 -7.41343424e-02
  -5.84245808e-02  3.73060554e-02 -6.85900450e-05 -4.80665043e-02
   6.60705939e-02 -3.12119983e-02  1.82256550e-02 -5.98756894e-02
  -5.69018424e-02  5.93418702e-02 -4.21293937e-02  2.59562582e-03
  -7.78816789e-02  5.75560257e-02 -7.08088651e-02 -5.22966795e-02
  -6.14749864e-02  4.88520786e-02 -5.95613047e-02  6.85247108e-02
  -5.60702384e-03 -3.25299799e-02  4.75817248e-02 -7.16777369e-02
  -2.88986899e-02 -2.15465203e-02  5.29695228e-02 -9.56487656e-03
  -3.82337347e-02  7.20977709e-02 -7.03343749e-03  7.66496360e-03
  -7.34441951e-02  4.78976965e-03 -1.96729116e-02  3.09246108e-02
   2.88293213e-02 -5.42716235e-02 -4.21113893e-02 -2.94886641e-02
   6.00016043e-02  7.15652034e-02 -1.77907348e-02 -6.98392838e-02
   3.76772359e-02 -7.51550719e-02  7.87015781e-02  3.18841785e-02
   2.33918428e-04 -4.62069362e-03 -2.34208852e-02 -7.31931627e-02
   3.98018360e-02  7.72527382e-02 -6.87729716e-02  4.28885818e-02
   4.22585160e-02  3.74545753e-02 -5.21969125e-02 -4.73754108e-02
   2.39187479e-02 -2.31435746e-02  1.69797018e-02  4.96927723e-02
   5.72373047e-02  3.02392617e-02  2.05278397e-02 -7.27679133e-02
   2.40226910e-02  1.28319114e-03 -2.95332596e-02  7.82055035e-02]
 [-7.74488449e-02  7.46138319e-02  4.94730696e-02 -3.87280993e-02
   6.01047948e-02 -7.91142583e-02 -5.33261150e-03  7.56525993e-03
   8.19557160e-03  5.28937951e-02 -4.89256680e-02 -4.25755680e-02
   4.70764190e-03 -4.09085490e-02  3.37631628e-02 -7.67825246e-02
  -2.25768089e-02 -4.30748463e-02  2.79123634e-02 -2.16517001e-02
   4.76988479e-02  2.82324478e-02 -4.62382026e-02  1.06863678e-04
  -6.95728436e-02 -6.79011047e-02 -5.69954626e-02  5.98707795e-03
  -5.88831902e-02  1.44494399e-02 -1.62813216e-02 -4.44725603e-02
   4.59242538e-02 -2.65217610e-02  4.00637761e-02  2.36120448e-02
   2.40203887e-02  4.07621190e-02 -5.19358478e-02  4.58927825e-02
   4.84697148e-02  7.78450742e-02 -2.10755542e-02 -2.56619640e-02
  -5.77546246e-02  4.90284339e-02  1.76434740e-02  5.38110808e-02
   4.41251695e-03  6.12505302e-02  2.29651183e-02  7.69880936e-02
  -3.10346633e-02 -9.24047828e-03 -5.89641929e-03 -4.11478989e-02
   7.11726919e-02  6.80711493e-02 -3.20482813e-02 -6.94854110e-02
   4.10358310e-02 -8.98136199e-03  4.49548736e-02 -5.50349653e-02
  -5.20291328e-02 -1.18016452e-02  1.86042488e-03  8.80984962e-03
  -4.22921479e-02  7.86337480e-02 -3.45243365e-02  1.24745220e-02
  -7.85817429e-02  1.73117816e-02 -4.19189930e-02  1.20244399e-02
  -7.86370486e-02  6.14097789e-02 -4.77571674e-02  2.14665011e-02
  -7.80502483e-02  1.35079026e-02 -7.23375976e-02 -3.10359411e-02
   2.68130004e-02 -6.69825897e-02  7.28399083e-02 -4.00001891e-02
  -6.39306381e-02 -6.68283477e-02 -2.82174982e-02 -2.63809040e-02
   5.99076673e-02  4.65998426e-02  6.08661845e-02 -6.35411665e-02
   7.05234483e-02 -1.38210282e-02 -3.51988971e-02  2.83007920e-02
  -4.57612425e-02  4.20481563e-02  2.03260407e-02  2.94799805e-02
  -6.48244545e-02  1.68605149e-03  4.93190065e-02  2.31885910e-02
   4.65978906e-02 -2.63112672e-02 -6.96305856e-02  4.39183041e-02
   3.48959863e-03  5.39271161e-02 -3.26082595e-02  1.59622207e-02
   3.20492834e-02 -3.27050500e-02  8.04322213e-03  7.17603937e-02
   1.81097388e-02  5.40853962e-02  5.23130074e-02  5.98935410e-02
  -6.71608523e-02 -3.72678414e-02 -4.31966558e-02  1.92000344e-02]
 [ 8.69137049e-03  5.17002121e-02 -2.28893161e-02 -2.98795886e-02
   5.53197786e-02  1.04582682e-02  5.10643423e-03  2.23660991e-02
   5.51685914e-02  1.14521012e-02 -7.63141364e-02  5.27636185e-02
  -1.12928897e-02 -2.11600848e-02 -1.71018392e-03 -1.68212280e-02
   3.34498286e-03 -3.04704159e-03  5.22660464e-03  6.62115589e-02
   3.47977430e-02 -7.65364617e-02  4.44376394e-02 -7.89898559e-02
  -2.28835121e-02 -8.17176700e-03  6.74850270e-02 -1.79612935e-02
   7.31177628e-04 -7.30438530e-02 -4.19030227e-02  5.29145524e-02
   6.46833405e-02 -3.69791240e-02 -1.95402876e-02 -3.85995954e-02
  -4.68016639e-02 -4.27714065e-02 -7.74008855e-02  2.15884671e-02
   6.88083470e-03  6.71245530e-02  5.06413803e-02  6.61976710e-02
  -4.84378785e-02  2.51121074e-03 -6.64074123e-02 -4.95249592e-02
  -8.51570070e-03  3.95720378e-02 -2.44501680e-02  1.92022175e-02
  -6.03078417e-02 -3.47677097e-02  6.70822710e-03  3.78162190e-02
  -5.09558767e-02  1.94248557e-02  1.54088512e-02  6.50844797e-02
   6.97993711e-02 -3.99946384e-02 -1.01431683e-02  7.12969825e-02
   7.45408460e-02 -6.82514757e-02 -2.22556740e-02  1.16431043e-02
   5.92941865e-02  5.00312969e-02 -5.40083349e-02 -7.39180967e-02
  -8.98092985e-04 -6.24173209e-02  1.12793148e-02 -7.57527798e-02
   4.55462411e-02 -2.48980597e-02  2.68510133e-02  2.34643221e-02
  -4.09500115e-02  7.36702904e-02  1.09662637e-02  3.52366641e-02
   1.35535151e-02  2.85012871e-02 -1.39243901e-02  7.81841204e-02
   2.85983831e-02  4.48591337e-02  5.98716214e-02 -7.22152442e-02
  -6.48645833e-02 -2.21095979e-04 -3.44937444e-02 -6.70037493e-02
  -5.69599196e-02  3.51334587e-02 -9.26372409e-03  1.75313652e-03
  -3.83666158e-03  4.11303788e-02  1.21481046e-02  2.24061310e-03
  -7.94076249e-02  2.79960781e-02  7.08603859e-03 -5.48634529e-02
   5.39054498e-02  2.41496712e-02 -3.16913538e-02  8.06380585e-02
   3.81685048e-02  4.85563278e-03 -6.47730380e-02  4.94383201e-02
  -1.92151144e-02 -2.42245644e-02 -5.31194098e-02  7.22949728e-02
  -5.70501499e-02  6.14651814e-02  5.68496361e-02 -4.91711460e-02
   4.19767797e-02  6.69843480e-02 -2.09362060e-03  5.15304729e-02]
 [-2.97001489e-02 -5.71515784e-02  4.53811809e-02  6.72713742e-02
  -2.21016444e-02  7.44720176e-02  3.22178006e-03 -4.39562835e-02
   8.24511796e-03  7.68621787e-02  1.68513358e-02  6.40525147e-02
  -6.13323599e-03  6.12440333e-02  6.21388108e-03 -2.15638876e-02
   5.81361130e-02  2.65114382e-02 -1.01296902e-02  1.46233290e-02
   1.64077729e-02  8.05490091e-02 -4.31279652e-02 -8.07110071e-02
   2.16447189e-02 -4.02019471e-02 -6.54584020e-02 -2.56713405e-02
  -1.71070546e-03  4.96535748e-03 -2.90907212e-02  2.15019658e-02
  -5.87893985e-02  4.25726920e-03  1.77550763e-02  6.12510070e-02
   6.28058091e-02  5.00109717e-02 -6.86678290e-02 -6.33937493e-02
   1.88769475e-02  7.44888708e-02  6.16403595e-02  3.61176580e-02
   4.37280908e-02 -6.41411543e-02 -6.51684999e-02  3.96254733e-02
   7.48287514e-02  2.55492181e-02  2.65399814e-02 -6.02822192e-02
   7.14111328e-03 -1.37954429e-02  7.60261044e-02  7.66059235e-02
   6.88173845e-02  6.59232512e-02 -7.20176101e-02  7.35421851e-02
  -2.13893391e-02 -6.78982809e-02  8.09903666e-02 -6.99358210e-02
   2.82800794e-02 -7.47844577e-03 -4.60819900e-02 -5.10527194e-03
   5.71823642e-02  3.62036377e-02 -7.16808885e-02  5.91140985e-03
   4.94469330e-02 -8.01932812e-02  6.69436157e-03  2.42570192e-02
   7.92622566e-03  4.62084934e-02  7.73274824e-02 -1.10331550e-02
   1.55542046e-03 -3.44301015e-03 -5.74801192e-02  1.67923719e-02
  -1.04263201e-02 -3.68737690e-02  6.72457889e-02 -5.94764277e-02
   9.85153019e-04  4.66745123e-02 -7.80407563e-02 -6.72183260e-02
  -4.21263203e-02 -3.77162211e-02  6.91269413e-02 -1.12674013e-02
   5.55005148e-02  2.78628170e-02 -7.45855197e-02 -4.43224534e-02
   5.87472320e-03  3.28996703e-02 -7.20891953e-02  6.86287656e-02
   1.74186081e-02 -4.11517099e-02  5.93227521e-02  1.69272572e-02
   6.93539903e-02  2.02336833e-02  1.56578124e-02  1.51780918e-02
   2.02457681e-02  5.09160683e-02  7.80319422e-03 -3.64491194e-02
   5.75962290e-02  2.07400918e-02  5.94107136e-02  7.25361183e-02
   7.97283426e-02 -3.82383168e-02  7.15651736e-02 -6.55419230e-02
   5.11051640e-02 -5.23664355e-02 -3.00272182e-02 -4.70867492e-02]
 [ 5.10577783e-02  5.86322770e-02  2.54386216e-02 -7.71442503e-02
  -1.16486922e-02 -1.12128109e-02 -4.43748049e-02  3.02467868e-02
   1.03988424e-02 -7.46280700e-03 -6.37234896e-02  3.79328653e-02
  -3.39896344e-02  3.83997113e-02  5.43772057e-02 -3.38250399e-03
  -2.36539133e-02  2.86306441e-02 -5.95615767e-02  6.38266131e-02
  -4.38034721e-02 -9.06741619e-03  6.14310429e-02 -8.81195813e-03
  -1.73791945e-02 -4.50887159e-02  3.46732587e-02 -2.66809538e-02
   5.28243706e-02 -4.02452834e-02  4.75832075e-03 -3.02785560e-02
   4.89391610e-02 -3.89813706e-02 -5.64553067e-02  7.82081485e-03
   2.79455632e-02 -6.42394349e-02 -7.87816644e-02 -7.18741119e-03
  -7.64385909e-02 -1.04883015e-02 -6.13274351e-02  5.57947233e-02
   7.13325068e-02 -5.19962981e-02  2.39480883e-02  1.63372830e-02
  -3.12482379e-02  4.78779599e-02 -3.91443819e-03  7.69798979e-02
  -3.31316516e-02 -7.15687871e-04 -7.12201372e-02  1.05276182e-02
  -5.38347885e-02 -1.79004222e-02  6.95587024e-02  6.15110993e-03
   1.41141340e-02 -4.89487499e-03 -3.42133194e-02  2.21969187e-03
   7.51244277e-03 -7.27580115e-02  6.29245415e-02 -5.34290075e-03
  -6.94355369e-02 -4.59150411e-02 -4.81017977e-02  1.60243139e-02
  -1.31655708e-02 -1.49928033e-03 -2.70512439e-02  4.70445529e-02
   6.66648373e-02 -1.69011205e-03 -1.34774968e-02  1.57443136e-02
  -6.57824576e-02  3.80469263e-02 -7.47030973e-02  6.77156225e-02
   1.71012431e-02 -7.78163150e-02 -6.12902492e-02 -4.25261967e-02
  -5.89818917e-02  6.01323023e-02 -6.28986359e-02  5.39798066e-02
  -4.47117537e-02  2.99746916e-02  6.10975921e-03  2.31686383e-02
  -2.23284215e-03  7.78685287e-02 -5.75577244e-02 -4.62625511e-02
   2.18810886e-03 -7.00460076e-02  3.69250700e-02 -6.79606199e-03
  -5.18347472e-02  3.04441899e-02 -3.26887667e-02  6.31273016e-02
   3.05692852e-02  7.95905367e-02  7.74145126e-03  7.65598193e-02
  -6.76085725e-02 -6.79106191e-02  1.63678825e-02  4.81893122e-03
  -9.02903080e-03  4.07893211e-03 -3.17084678e-02 -2.52099894e-02
  -2.97837853e-02  7.36530051e-02 -6.91293180e-02  2.44631618e-02
  -5.96653447e-02  8.39059800e-03 -5.14522940e-02  9.57853347e-03]
 [ 6.99569359e-02 -6.89956099e-02  1.39388517e-02 -7.94900656e-02
   3.58528197e-02  6.63069114e-02  5.83132133e-02 -7.49088079e-03
  -7.49129057e-03  3.27252969e-02 -2.26050802e-02 -2.76967585e-02
  -6.04742840e-02  3.65513563e-02 -2.58279443e-02 -2.32264586e-02
  -1.43523812e-02  3.80752981e-02  5.82268313e-02  6.66685402e-04
  -5.48806638e-02  2.74134725e-02 -1.49837956e-02 -2.84711979e-02
   4.68527749e-02 -6.57120273e-02 -4.77824844e-02  4.85276207e-02
  -4.56439368e-02 -3.09837274e-02 -2.03367732e-02  1.09428093e-02
   5.62656894e-02 -5.16683608e-02 -7.62580708e-02  6.30417690e-02
   6.78971633e-02 -3.45159844e-02  7.60396793e-02 -5.63199073e-03
   1.88457891e-02  4.14067805e-02 -1.04552358e-02  6.57395050e-02
  -1.91178434e-02 -3.96542847e-02  6.69428632e-02  6.25050589e-02
   1.69562250e-02  1.06959194e-02  1.60096735e-02  4.15202975e-02
   5.81964627e-02  5.49115464e-02  1.35040507e-02 -7.82995746e-02
  -6.88052624e-02  5.01672104e-02  7.96179995e-02  2.45166719e-02
  -6.16249517e-02  4.51350436e-02  3.54345143e-02 -4.60087731e-02
  -4.49668281e-02  4.54125032e-02 -6.20580763e-02  1.11879632e-02
   1.74674541e-02 -3.22226547e-02  3.63416970e-03  5.49261793e-02
  -4.77200001e-02  1.02393031e-02 -6.14312589e-02 -5.37960231e-03
   7.74967894e-02 -3.80992927e-02  2.72726119e-02 -3.76749709e-02
  -4.91395853e-02 -3.19538154e-02  1.64376497e-02 -8.08444023e-02
   4.27669436e-02  1.66040212e-02 -3.06297392e-02  4.48261723e-02
   5.07914051e-02  4.04597446e-02  4.97063994e-03 -2.84172446e-02
  -3.78031842e-02 -3.71623151e-02 -7.33402669e-02  5.00707999e-02
   6.54994920e-02  5.96469566e-02 -5.01847044e-02  7.60940686e-02
  -7.85678029e-02  8.08449015e-02  7.13366643e-02 -1.71300024e-02
   4.94721308e-02 -6.67224526e-02 -6.91927299e-02  6.19669780e-02
   6.61077872e-02 -7.44677112e-02  1.04970634e-02  6.09144196e-02
  -4.88182046e-02 -7.02054948e-02 -5.22970483e-02  1.60602853e-02
   2.00075209e-02  2.84272060e-02 -8.08305368e-02  6.97904602e-02
  -1.39026716e-02  1.50022283e-02  6.82595745e-02 -4.54558916e-02
   2.68246979e-02  6.64990619e-02  8.93002003e-03 -1.60614997e-02]
 [ 5.50876036e-02  7.68369064e-02 -2.86065787e-03 -7.71918446e-02
   7.49416873e-02  1.55609101e-02 -6.60282671e-02  6.61079958e-02
  -5.38322553e-02 -4.53522205e-02 -6.14458025e-02  5.11657521e-02
   5.79920784e-02  4.20333594e-02  5.87353334e-02 -4.36438546e-02
  -5.21145724e-02 -7.48132095e-02  2.62065306e-02  5.98561391e-02
   7.85409659e-03 -2.47946195e-02  7.34670088e-02  2.77863741e-02
   6.34837896e-03 -4.03105691e-02  3.63120511e-02 -2.62039006e-02
  -7.09400177e-02 -5.23150340e-02 -4.19885926e-02 -4.09839489e-02
   2.84383819e-02 -2.07690261e-02  3.28845829e-02 -2.29882300e-02
   3.41673121e-02 -1.53257772e-02  3.47748622e-02  7.44292811e-02
   6.00586459e-02 -8.00942257e-02  5.66368178e-02  1.54191256e-02
   3.95512581e-03 -4.39093113e-02 -1.36234611e-02 -1.27913356e-02
   7.37132356e-02  3.26362252e-02  4.78089526e-02  4.42592725e-02
   7.04896525e-02  3.36633027e-02 -8.08582678e-02  3.94642353e-03
   4.04776707e-02 -3.43269520e-02 -4.73075546e-02 -2.09790953e-02
   9.68487561e-03  4.83496413e-02 -1.87949501e-02 -7.38776848e-02
  -5.84739707e-02 -3.12838964e-02  2.01139972e-02 -2.49855667e-02
   5.77139333e-02  2.44998634e-02 -1.53292790e-02  3.68374661e-02
   5.29515371e-02  3.75463739e-02 -4.86711152e-02  1.39148533e-03
  -4.95711192e-02 -2.75907256e-02 -5.77814654e-02 -1.00553557e-02
  -1.22732818e-02 -1.13903582e-02  3.27622890e-02  7.86687508e-02
   3.79045531e-02 -1.03564560e-03 -7.07445294e-03  6.67154044e-03
   1.04333982e-02 -2.18006074e-02 -7.00524300e-02 -6.29638806e-02
  -8.06671828e-02 -4.17475402e-03  5.72235063e-02  1.01944059e-03
   7.57887885e-02 -1.94497667e-02 -3.31652425e-02 -6.05669767e-02
  -3.20317484e-02 -7.23224729e-02 -5.05240932e-02 -6.48639351e-03
  -9.00921226e-03  1.69183016e-02 -7.15665072e-02  7.54484311e-02
  -7.79792368e-02  1.58826634e-02 -7.09919035e-02 -1.67204142e-02
   3.46611142e-02 -7.62791485e-02 -7.56823495e-02 -4.00359482e-02
  -1.36540085e-03 -4.99189571e-02 -5.95076606e-02  5.41288406e-03
  -4.91513647e-02 -5.18471822e-02 -1.91681087e-03 -2.43951678e-02
  -1.84180513e-02  1.35267526e-02  2.68750340e-02  5.16595766e-02]
 [-5.05858809e-02 -7.03033283e-02  5.21659926e-02  1.12084001e-02
   5.13364747e-02  6.82992414e-02 -7.85662904e-02  3.30838859e-02
   6.65019378e-02  7.58725032e-02 -2.65092105e-02 -7.31063932e-02
   7.09588751e-02 -5.81557602e-02  7.85355642e-02 -2.06024200e-03
   1.71349719e-02  1.66987777e-02 -5.73864244e-02  4.77661565e-02
   7.04546496e-02 -3.82072777e-02  2.12708712e-02  3.62058431e-02
  -4.51743454e-02 -5.68268150e-02  6.49209991e-02 -2.98795700e-02
  -3.82450260e-02 -2.86696665e-02 -7.08341599e-02  2.74959877e-02
  -5.03367633e-02  4.02135104e-02  3.05784717e-02  2.73528472e-02
   6.28965124e-02 -4.97763008e-02  7.48748258e-02 -3.42048109e-02
  -5.91175109e-02 -4.38213237e-02  6.93928078e-02  4.89468202e-02
   2.05844641e-03  6.78053126e-02  7.21251145e-02  1.42755359e-03
   3.16476673e-02  6.43632039e-02  3.33516821e-02 -2.90103294e-02
   5.77923134e-02 -1.83021948e-02  6.53078780e-02 -5.70558533e-02
   6.06506839e-02  6.07710704e-02  3.14256251e-02  2.21084729e-02
   5.41305766e-02 -4.39721420e-02  3.60832959e-02 -7.50238076e-02
   7.60183856e-02 -4.02341820e-02  5.53688183e-02 -3.60279679e-02
  -3.84217612e-02  6.74779192e-02 -1.36225373e-02  6.66529909e-02
   3.42285186e-02 -7.45570585e-02  4.03522030e-02 -1.28677413e-02
   7.75237381e-03 -4.87010330e-02  8.06846842e-02  5.40973619e-02
   6.27753064e-02 -7.05048293e-02  5.41861430e-02 -7.63839036e-02
   3.97394523e-02  3.86611074e-02  5.88482246e-02  3.71771082e-02
   5.91556504e-02  5.58572933e-02  2.24620551e-02  1.88321024e-02
   6.61807880e-02 -2.88308896e-02 -2.78855003e-02  7.39485547e-02
   5.80593944e-04 -3.16685922e-02 -4.41914946e-02 -5.82855009e-02
   4.91938069e-02 -1.74004063e-02 -1.72959045e-02 -4.41145301e-02
   5.64526394e-02  2.25906521e-02 -7.64903054e-02 -2.50684470e-03
   7.16656968e-02  7.98076764e-02 -3.10767442e-02 -5.57723939e-02
   8.47930461e-03 -4.76910695e-02  4.66125384e-02 -4.71151173e-02
  -2.32135803e-02 -8.74973089e-03 -3.37232500e-02  4.41537127e-02
  -2.89942212e-02  6.35059252e-02 -2.76307762e-02  3.37275118e-03
   2.05597654e-02  6.85666502e-03 -1.99263766e-02  1.85532048e-02]
 [ 2.05507725e-02 -4.15446833e-02  5.74094579e-02 -4.00065929e-02
  -1.92328691e-02  5.56425378e-02 -4.97322083e-02 -2.19569169e-02
   4.86150756e-02  4.25550491e-02  2.69754753e-02 -2.72775032e-02
  -7.84536451e-02 -5.22248447e-03 -5.53225055e-02  6.08539358e-02
  -6.98389113e-03  2.04263851e-02 -4.00078297e-02  4.79375497e-02
  -6.05622381e-02  7.16652200e-02  5.51480129e-02  5.26107922e-02
  -2.65183598e-02 -3.19466777e-02  2.41013989e-02 -4.27311659e-02
  -3.31226029e-02  4.72484306e-02 -3.80772874e-02  1.92868635e-02
   7.92096779e-02 -7.47584477e-02 -4.80372831e-02 -7.44639039e-02
  -4.11057994e-02  7.03800991e-02 -5.04281372e-02 -3.00514475e-02
   7.38647506e-02 -5.58064282e-02 -4.98515069e-02  6.83170334e-02
   4.03755829e-02  5.25219068e-02  2.84216553e-02 -2.16049403e-02
   2.54238099e-02  3.26472074e-02  1.14133507e-02 -7.64167830e-02
  -1.18617266e-02 -9.48061794e-03 -6.85371459e-04  5.49943224e-02
  -7.16502964e-02 -6.71352446e-02  4.07500342e-02 -7.56161138e-02
   7.08998963e-02 -2.90890969e-02 -1.03415400e-02 -7.74943829e-03
  -4.33951616e-04  4.70682606e-02  6.28299192e-02 -4.70972285e-02
   6.06355295e-02  7.04682097e-02  5.74684218e-02 -1.94774196e-02
  -8.00275505e-02  1.38334036e-02 -7.52283484e-02  5.02464399e-02
  -2.25339718e-02  5.59466854e-02 -5.97786307e-02  7.89771006e-02
  -7.56826997e-02  3.60063314e-02 -5.65323085e-02 -2.18576565e-02
  -1.20077729e-02  1.85474232e-02  2.38627046e-02 -4.18828130e-02
   7.32650980e-02  7.03150406e-02  4.53912094e-02  1.97197646e-02
   6.13347813e-02 -5.68708852e-02 -1.92265064e-02 -8.27350467e-03
  -1.11308917e-02  8.82356614e-03  3.09875011e-02 -1.37903318e-02
  -6.69649541e-02 -5.58365360e-02 -7.71179274e-02  1.41179562e-03
   7.28927627e-02 -5.49578629e-02 -1.52101368e-03 -4.70938459e-02
   3.79442200e-02 -8.04826394e-02 -4.15869951e-02 -3.78923155e-02
   2.19845697e-02 -6.23251945e-02 -3.75843793e-03 -5.32431938e-02
  -7.56145120e-02  2.63302773e-02  6.81690350e-02  7.07276165e-04
  -3.74606848e-02 -1.79528445e-02  2.74978280e-02  5.48241362e-02
  -6.56981617e-02  3.39144096e-02  3.05633917e-02 -4.81171310e-02]
 [ 4.92711887e-02 -2.66997926e-02  4.56974432e-02 -4.89972197e-02
  -3.71534564e-02 -3.63249257e-02 -1.66153908e-02 -3.20663825e-02
  -3.57555673e-02 -1.17200166e-02  3.55251729e-02 -8.03477168e-02
   2.39372402e-02  1.71302930e-02 -2.96775401e-02 -4.27290387e-02
   7.31182620e-02 -9.65073705e-03  6.79085627e-02  1.84546784e-02
  -1.58122927e-02  2.16034502e-02 -3.44760679e-02 -3.16436067e-02
   3.51917222e-02  5.06024137e-02 -1.01443902e-02  7.21248761e-02
   3.65329459e-02  5.74114099e-02  1.50734112e-02 -9.54300910e-03
  -2.36422569e-03 -5.28126284e-02 -3.66968028e-02  3.92354801e-02
  -1.61972567e-02  1.93134919e-02  1.42917782e-03 -2.16460153e-02
   5.09511456e-02 -3.26226875e-02  1.00944191e-03 -6.76964223e-03
   7.07422420e-02 -3.74318324e-02 -1.57115385e-02  2.70910040e-02
   5.11490926e-02 -5.98362982e-02 -6.80922419e-02 -6.08285256e-02
   6.62548319e-02  4.46600989e-02 -4.81731929e-02 -2.81140581e-02
  -7.44174421e-03 -5.73192611e-02  6.17998913e-02 -2.34522708e-02
   5.22419587e-02 -1.77909061e-02 -2.00171322e-02 -5.05408980e-02
  -4.91893627e-02  2.87566334e-03  3.46475244e-02 -3.90533358e-03
   3.25760618e-02  4.08366472e-02 -6.44964427e-02  6.90574870e-02
  -1.42178237e-02 -7.14557543e-02  2.09453106e-02  1.73096731e-02
  -2.67897733e-02 -1.51678398e-02  2.15958133e-02  5.15633598e-02
  -1.54386386e-02  7.29854926e-02  5.36197349e-02  6.88787550e-03
   3.71514857e-02 -5.14273867e-02  4.46957424e-02 -4.25420925e-02
   4.80011180e-02  7.46369362e-03 -4.92871180e-02 -8.05149972e-03
   7.62420818e-02 -6.70225844e-02  1.04506314e-03 -6.96095824e-03
  -2.65130401e-02  4.25955802e-02  2.01826692e-02  5.69353625e-02
   4.09810320e-02  1.88319832e-02  4.96732667e-02 -2.99322642e-02
  -9.33260471e-03  2.04110369e-02 -3.31909247e-02  4.73483726e-02
   5.04698828e-02 -5.81799708e-02  1.11599043e-02 -1.96402296e-02
  -4.13555652e-03 -5.85337467e-02  2.05194056e-02 -1.22969523e-02
  -7.68738985e-02 -3.32732089e-02 -4.11188714e-02  3.81666869e-02
   4.82830778e-02  6.04049042e-02  2.67999619e-02 -6.31041378e-02
  -7.69094229e-02  1.31714121e-02  7.45266005e-02 -3.89908850e-02]
 [ 7.14687929e-02  1.06525138e-01 -3.47666554e-02 -4.30131927e-02
  -2.90417299e-02  1.10951781e-01  8.87556896e-02  8.87081698e-02
  -9.81836766e-03  1.62025280e-02  6.54277951e-02  9.09466743e-02
   7.54178241e-02  8.78858641e-02  5.98708242e-02  5.74351586e-02
   5.95690832e-02 -1.81292538e-02  1.25853136e-01  1.23130456e-02
   6.87601184e-03  3.45584601e-02  7.54014123e-03 -1.81109197e-02
   3.80720198e-02 -1.74831375e-02  6.75792471e-02 -4.66916263e-02
  -3.47625744e-03 -1.09054679e-02  9.37774926e-02 -5.68364561e-03
   6.67456612e-02  3.68364193e-02  5.31644300e-02 -2.85203662e-02
   5.52290082e-02 -1.42669398e-02  7.66334310e-02  8.82183388e-02
  -3.21886595e-03 -5.36917485e-02  5.39162606e-02 -2.86612175e-02
  -3.88994291e-02 -7.72733986e-02  7.57280514e-02 -4.33988012e-02
  -1.14776447e-01  1.09401383e-02 -3.94976046e-03  4.73831631e-02
   1.11892372e-02  4.66915406e-02  2.01530829e-02  5.09852022e-02
  -6.14730082e-02  7.71316439e-02 -1.96784716e-02  5.86949736e-02
   4.29198109e-02 -3.22188437e-02  7.31201991e-02 -3.71490419e-03
   6.64256737e-02 -9.30529460e-02  5.26039787e-02 -9.76237878e-02
  -7.10137263e-02  4.40520719e-02 -3.18188891e-02  2.75491681e-02
  -1.14276716e-02  2.79014441e-03  5.49879111e-03 -8.11137930e-02
  -9.07921977e-03 -1.15132213e-01 -4.82305288e-02 -6.99783340e-02
   4.96278554e-02  9.38570499e-03 -2.49438882e-02 -6.18323535e-02
  -1.21823186e-02 -6.12357222e-02  4.62944806e-02 -3.04931160e-02
  -5.09756655e-02  5.90442941e-02  3.96596044e-02 -2.20606457e-02
   2.07216404e-02  1.12999231e-01  3.52941342e-02 -5.35896756e-02
   5.37673533e-02 -2.53634248e-02 -4.00958024e-02 -7.51502961e-02
  -3.84446904e-02  4.55957763e-02  3.88004072e-02 -1.45345312e-02
   9.55405608e-02  3.32106985e-02  5.64594865e-02 -2.57828757e-02
   9.15673971e-02  6.86443597e-02  4.68069799e-02  1.01706021e-01
   5.66190258e-02 -2.37536114e-02 -9.89267528e-02  3.94546427e-03
  -4.01408412e-02  1.84163637e-02 -6.76574036e-02 -1.09423371e-02
   4.09862325e-02  4.29620743e-02  3.83331105e-02  4.90804240e-02
  -8.70557055e-02  2.50874832e-02  1.75994411e-02  4.29633185e-02]
 [ 4.22109775e-02  7.68232048e-02  5.14697060e-02 -2.48488747e-02
  -1.29926056e-01  1.13728076e-01  9.49279442e-02  7.66340196e-02
   1.23240659e-02 -6.83025597e-03  6.56862184e-03  5.74951060e-02
  -5.11493199e-02  5.66150919e-02  1.59198157e-02 -5.07500535e-03
  -8.06065947e-02  2.62916330e-02  4.68115322e-02 -7.79851526e-03
  -2.08125226e-02 -6.81036487e-02  1.46738617e-02 -5.02555221e-02
   1.04187965e-01  3.03067118e-02 -1.93124339e-02  2.07245871e-02
   2.36015338e-02 -9.10070091e-02 -3.03811301e-02 -1.35996416e-02
  -6.17123656e-02  3.38415802e-02 -7.29388446e-02  4.06934358e-02
   5.80909029e-02  6.69611571e-03 -6.70418441e-02  8.30117539e-02
  -7.50127658e-02 -7.54326731e-02  4.58368547e-02 -4.55845296e-02
   4.97647598e-02  4.07182947e-02  8.87754466e-03 -2.08692551e-02
  -3.85754742e-02 -6.31463602e-02 -7.22894073e-02 -3.46507803e-02
  -4.27586623e-02  5.47164269e-02 -6.94475845e-02  2.15079505e-02
   2.63209734e-03 -4.83486466e-02 -5.64088151e-02  2.57209409e-02
  -6.94328994e-02  8.93632248e-02  3.60336341e-02  6.46892115e-02
  -2.41805315e-02 -3.15697975e-02  1.75182754e-03 -6.79349750e-02
  -2.14846432e-02 -6.08317740e-02 -3.32847536e-02 -5.73935406e-03
  -4.33701165e-02  6.12960197e-02 -1.28517579e-02 -6.12690300e-02
   7.45283347e-03 -2.31852420e-02  7.09614307e-02 -1.72684807e-02
   8.62788409e-02 -4.82674092e-02 -1.85023015e-03 -3.44699733e-02
   6.24422543e-02 -1.22932360e-01 -2.95255706e-02  1.04384825e-01
  -4.71851826e-02  1.06993474e-01 -6.02086931e-02  8.02521631e-02
   5.05588688e-02 -2.35594325e-02 -6.66152611e-02  1.29590817e-02
  -8.80499110e-02  2.79644644e-03  7.62254670e-02 -1.25229359e-03
  -1.24367297e-01 -9.15954448e-03 -1.10888127e-02 -6.01579025e-02
   2.25076098e-02 -2.55591795e-02  4.48511280e-02  4.61210571e-02
  -2.36383863e-02  5.87062202e-02 -6.39916584e-02  9.12272111e-02
   3.38647887e-02  2.04196069e-02  2.68657953e-02  4.04219888e-03
   7.25685991e-03 -8.92358348e-02  6.58837929e-02 -1.35544479e-01
   3.19269523e-02 -4.07184139e-02 -6.20303266e-02  4.43345830e-02
  -6.71623424e-02  1.25007629e-02 -5.89811578e-02 -3.65523472e-02]
 [ 2.26524286e-02  3.08082551e-02  3.14878188e-02  8.79541337e-02
  -4.53872420e-02 -5.72953150e-02 -7.58426115e-02  5.78550771e-02
   4.63330001e-02 -4.57612006e-03 -2.48739216e-02  1.12615200e-02
   5.58594689e-02 -7.13032112e-02  8.09998363e-02  4.01340276e-02
   7.58969411e-02 -3.13240513e-02  8.49737749e-02  4.14993539e-02
   6.93839863e-02  1.21825170e-02  8.48835558e-02  9.94479936e-03
  -3.24156322e-02 -2.21566074e-02 -1.95667371e-02  4.66585010e-02
  -4.74251397e-02 -3.40087153e-03 -4.47545685e-02  4.96065691e-02
   1.59188826e-02 -6.24407642e-03 -3.05932276e-02  8.17412585e-02
   6.57725111e-02  2.21069343e-03 -2.07717121e-02 -6.16617128e-02
   8.04046914e-02  2.43335217e-02  1.69940758e-02 -1.24758556e-02
  -5.24090677e-02 -3.93841937e-02 -3.44509222e-02  3.08834016e-02
  -5.87501749e-02 -8.30309913e-02 -2.45000534e-02  1.58832520e-02
  -7.36150444e-02  5.34756333e-02 -2.88681574e-02  8.19528475e-02
  -2.93421969e-02 -6.19613379e-02  2.41515171e-02  4.77434285e-02
   3.51848751e-02 -4.87767272e-02  1.34995012e-02 -6.64807260e-02
   2.67548487e-02  3.86763774e-02  7.75736272e-02 -5.31270280e-02
   6.55237213e-02 -5.65775037e-02  6.71421513e-02 -7.53877610e-02
   2.89247055e-02 -7.73299858e-02  4.83460128e-02  6.72487319e-02
   6.97167888e-02 -3.74310426e-02 -3.92938778e-02  5.32298796e-02
   3.37544307e-02 -4.24368344e-02  5.72532862e-02 -2.22942512e-03
  -4.93565835e-02  4.27431762e-02  9.41142719e-03 -8.78460184e-02
   7.54497275e-02  3.64507549e-02 -1.68964118e-02  1.30767180e-02
  -1.25804525e-02  3.79810967e-02  9.00521800e-02 -4.01966982e-02
   6.05578981e-02  3.67622413e-02  6.87360615e-02  2.08196342e-02
  -3.68850231e-02  5.19555770e-02  3.16780731e-02  7.15895072e-02
   3.20467427e-02  5.01351915e-02  3.67541462e-02 -5.87810539e-02
   6.98892176e-02 -3.69333476e-02 -2.04596836e-02  3.71743552e-02
   7.57169351e-02 -2.60884466e-04 -1.48368953e-02  5.27435653e-02
   6.10365672e-03 -4.29819003e-02  2.29745954e-02 -6.42254129e-02
  -7.92597011e-02 -5.12598529e-02 -6.42433530e-03 -6.36280775e-02
   9.55151860e-03  2.47938260e-02 -4.38645817e-02  2.44840086e-02]
 [ 1.76916048e-02  3.69502082e-02 -5.24119474e-02  1.44989081e-02
   6.56460449e-02 -6.64520785e-02 -5.52578308e-02  1.54500641e-02
  -6.57593608e-02 -5.08154593e-02  6.85230196e-02 -4.91380654e-02
   4.09979075e-02 -8.00491422e-02  6.24820590e-02 -3.60442325e-02
   8.05615261e-02  2.83309054e-02 -3.78182344e-03 -3.01691592e-02
  -3.66740413e-02  1.25742471e-02  8.18432793e-02  5.20713180e-02
   2.87237372e-02 -7.17800856e-03  5.53979352e-02 -3.88832167e-02
  -4.49779853e-02  2.63937353e-03 -3.35684828e-02  1.97674781e-02
  -4.48708460e-02  4.43162397e-03 -7.19762594e-02 -5.35960905e-02
  -4.40104119e-02  7.24476948e-02 -2.56619044e-02 -3.60024385e-02
  -6.53484464e-02  6.74857572e-02  4.48223688e-02  1.51644349e-02
   3.63544673e-02  6.44122958e-02  2.88835410e-02  1.52894035e-02
   1.38006192e-02  3.91728617e-03  1.11845601e-02 -1.60715971e-02
  -7.94409961e-03  3.52909192e-02 -4.16867025e-02  7.46165290e-02
   2.89583728e-02 -5.72299473e-02 -6.55941144e-02  1.81386005e-02
  -5.09777712e-03  8.84438530e-02 -2.75257416e-02 -4.61991020e-02
   1.13848448e-02  4.60012071e-02  2.20355708e-02 -5.06760329e-02
  -3.00505273e-02 -1.47024468e-02  6.69080094e-02 -8.79695415e-02
   2.83525814e-03 -8.06553811e-02  3.29796933e-02 -3.69754434e-03
  -1.25781754e-02 -3.93308327e-02 -9.02590156e-03 -1.77532732e-02
  -8.82522389e-02  5.58047071e-02 -6.57125190e-02 -4.00009612e-03
  -3.92399270e-05 -2.27795690e-02 -7.83988684e-02  1.87206808e-02
  -5.36408015e-02  6.30824715e-02 -2.64865495e-02  6.88196272e-02
   8.94947201e-02 -2.47624349e-02 -3.62465717e-02  2.75709257e-02
  -2.25911830e-02  1.68902781e-02  5.09409644e-02  5.46417460e-02
  -3.31889838e-03 -6.26273304e-02 -7.35495985e-02 -7.34511167e-02
  -5.72402142e-02  6.92707375e-02  5.98605722e-02 -3.00040725e-03
   1.75603647e-02 -2.24805120e-02  5.58727719e-02 -8.83318856e-02
   6.37300238e-02  4.06952985e-02  3.60387377e-03 -3.34643722e-02
  -5.38949668e-02 -8.58858600e-02 -6.53708801e-02 -3.62163633e-02
  -8.09770972e-02  3.94595712e-02  3.29122469e-02 -2.60598958e-03
  -5.51451854e-02 -2.09619999e-02 -6.15297332e-02  6.64548501e-02]
 [-6.74095601e-02 -2.18925588e-02  5.42069972e-03  5.93489185e-02
  -1.33922547e-02  4.28407714e-02  1.37943774e-03  2.79201716e-02
   5.16831502e-02 -4.03053500e-02  7.61683956e-02  4.79765013e-02
   7.59410933e-02  7.34033436e-03 -7.39625171e-02 -6.16078228e-02
  -3.04622687e-02  7.97063932e-02  5.79791293e-02 -2.06241794e-02
   6.92776069e-02  3.06435823e-02 -2.66450644e-03 -6.47422671e-02
  -4.21254896e-02  5.11303172e-02 -4.15159278e-02 -3.38790193e-02
  -7.70346001e-02  8.62634927e-03 -6.49633631e-02 -4.51350100e-02
  -5.37178740e-02  6.45742044e-02  6.98636249e-02 -6.48542792e-02
  -4.83264029e-03 -6.95584938e-02  6.88202009e-02  1.09282061e-02
   5.60938343e-02 -2.26834379e-02 -6.47335872e-02  5.46591207e-02
   4.18075100e-02 -2.39607133e-02  6.28119335e-02  4.42432389e-02
  -2.24767886e-02 -1.87250450e-02 -6.54253960e-02 -1.41487718e-02
  -6.13782741e-02  8.04570317e-03  7.09520280e-03  3.66941094e-04
   7.03499243e-02 -4.78029251e-05 -2.60254852e-02 -7.58835822e-02
   2.13592872e-02 -1.78435296e-02  5.41866347e-02 -5.00239283e-02
  -1.29868314e-02  1.32091418e-02 -5.25201149e-02 -7.27618635e-02
   1.07725710e-03  3.39286625e-02  1.03849545e-02 -4.21326645e-02
  -4.92597371e-02  4.18790802e-02  3.99560481e-03  5.91824725e-02
  -3.27497572e-02 -6.79764152e-03  5.95057681e-02 -4.90618870e-02
  -6.50254190e-02 -7.19919652e-02 -4.09833863e-02  5.69930002e-02
   1.98720396e-02  1.17674470e-04  6.53827935e-03 -2.26065889e-02
  -2.43089572e-02  6.71852604e-02  7.07281902e-02  1.35498270e-02
   7.72508010e-02  5.81043139e-02 -4.32394519e-02  3.33362669e-02
   3.91973779e-02  4.45740446e-02 -3.01686563e-02  7.34337494e-02
  -2.24432573e-02  5.38791344e-02  4.47202101e-02  4.00373936e-02
   5.71759790e-03  7.67290369e-02  4.31487560e-02  6.07499480e-03
   2.61440128e-03 -1.66814700e-02 -1.51206553e-02  1.46101043e-02
   6.99535385e-02  2.35909969e-03  4.47936878e-02 -3.36091518e-02
  -5.58710173e-02 -5.91447204e-02  1.01708993e-02 -5.44389971e-02
   2.97750086e-02 -5.69281280e-02 -2.01431811e-02 -5.90656660e-02
  -5.70559353e-02 -4.30243537e-02 -7.24385455e-02 -1.70756206e-02]
 [-7.35646710e-02  9.92810726e-03 -6.42166361e-02  5.80362752e-02
  -1.89397372e-02 -6.58208057e-02 -3.90933417e-02 -7.35254139e-02
  -2.45598741e-02  3.47165763e-02 -4.17374074e-02 -6.91284686e-02
  -5.04292771e-02  4.33685556e-02  2.33303010e-03  1.31843090e-02
  -4.02731895e-02  4.83696684e-02 -7.47259185e-02  6.45280555e-02
   1.21340081e-02  5.59710786e-02 -7.69668818e-02 -4.07883227e-02
   5.19023016e-02 -1.24130026e-02 -7.10757747e-02 -3.69183421e-02
   2.74060294e-02  7.97819421e-02  1.49017051e-02 -3.03238854e-02
  -1.02929473e-02  1.19409561e-02 -2.91856118e-02  4.95265201e-02
   1.18759573e-02 -2.22918205e-02 -5.52380159e-02  6.82185665e-02
  -2.78855003e-02  4.07889038e-02 -1.32357106e-02 -3.91129889e-02
  -5.40411100e-02 -6.02348596e-02 -6.78800419e-02  7.87390023e-03
   8.04552510e-02 -5.61478436e-02  3.50697339e-02 -2.84983106e-02
  -6.47651404e-03  7.24766031e-02 -5.44060618e-02  4.64638695e-02
   3.23235616e-02 -6.26828000e-02 -7.80819207e-02  1.03504211e-03
  -6.18080124e-02  6.24031797e-02  3.96499187e-02  4.33025509e-02
  -3.06247324e-02  3.68223265e-02 -9.83567536e-03 -2.90721171e-02
   1.56644508e-02  1.66811198e-02  6.61958680e-02  2.59055495e-02
  -6.34481311e-02 -4.13453802e-02  7.66807124e-02  5.99111393e-02
  -7.51022249e-02 -2.97723003e-02 -3.56615074e-02  3.86387929e-02
  -1.43465027e-02  3.02679092e-03 -7.71845728e-02 -7.91866854e-02
   1.74325854e-02  2.68030986e-02  6.62351474e-02 -5.66532686e-02
   8.01990554e-02 -4.26176302e-02 -7.69978389e-02  4.22603190e-02
   5.44397309e-02  2.02618763e-02  1.54193193e-02  1.84992328e-02
  -5.15239984e-02  2.98718140e-02 -8.03932026e-02 -6.13033995e-02
   3.46053243e-02  7.08184615e-02  6.68898597e-02 -6.40360117e-02
  -9.90877301e-03  3.21128219e-03  5.08644655e-02 -5.86602017e-02
  -1.18063986e-02 -7.58003742e-02 -7.83903301e-02 -6.49232343e-02
  -4.84872274e-02 -6.36908859e-02 -1.55071095e-02 -2.94393115e-02
  -1.87064223e-02  7.96758011e-02  6.08208776e-03  2.46772394e-02
   1.78902894e-02  1.60963088e-02  5.18817529e-02 -7.00652897e-02
   1.96135044e-03 -7.16914833e-02 -6.25912547e-02 -6.21860735e-02]
 [ 5.81474975e-02 -4.75663394e-02 -2.05187686e-02  2.22253129e-02
   7.14219362e-03 -5.38185686e-02  4.61570248e-02  1.92556307e-02
   3.42047140e-02  7.78348073e-02  4.34479788e-02  6.42775074e-02
   3.92879397e-02 -3.70666683e-02 -1.89302862e-03  6.45975247e-02
   1.55817941e-02 -2.00757645e-02  7.04536960e-02  1.43337250e-03
  -3.52506861e-02 -6.78298175e-02 -3.54273804e-02  3.01683098e-02
   6.29846677e-02 -6.64616749e-02  6.93187937e-02  7.10293427e-02
  -1.17946789e-02  9.69983637e-03 -6.17812276e-02 -6.60791993e-02
  -6.28566444e-02 -2.23707408e-03  2.73703486e-02 -4.66370359e-02
  -4.12082337e-02 -3.36959623e-02 -8.47806782e-03  3.35382372e-02
  -7.16960132e-02 -5.12749776e-02  2.54107565e-02  3.31142843e-02
  -5.33749647e-02 -2.10244246e-02  6.04884103e-02  7.80323967e-02
   1.20794773e-02 -6.30352348e-02  5.85287437e-02  2.78953612e-02
  -1.98701024e-03  4.83813360e-02  2.52458230e-02 -1.15535706e-02
   3.10284197e-02 -4.03667279e-02  6.03779182e-02 -1.44515485e-02
   6.71882555e-02 -3.18835005e-02 -1.45047307e-02  5.76292202e-02
  -2.14174390e-02  1.79208815e-04  6.95226118e-02 -1.13751590e-02
   1.90498903e-02 -4.94575463e-02 -6.89887106e-02 -7.05046579e-02
   3.37387770e-02 -1.27635896e-04 -6.48762658e-02 -5.65498695e-02
   5.62813208e-02 -5.43830507e-02  5.15008494e-02 -4.92950082e-02
   6.66062459e-02  5.06500229e-02  2.39058882e-02  7.18292668e-02
   1.66579708e-02  5.44267222e-02  3.49816307e-02 -6.45154864e-02
  -5.49952053e-02  7.08553717e-02  6.27700239e-03 -6.18943572e-03
   5.24271801e-02 -6.73591495e-02 -4.77624685e-02  4.12896276e-02
   5.68398312e-02  6.74800351e-02  6.04851022e-02 -8.10654387e-02
  -7.55615085e-02 -8.07415396e-02 -5.02395630e-03 -3.95513885e-02
   4.68502566e-02 -6.77860603e-02 -7.67099708e-02 -3.90289612e-02
  -4.58573550e-02 -5.66102043e-02 -5.30975163e-02 -3.27055715e-02
  -5.27006760e-02  7.53284469e-02 -1.46471933e-02 -1.70528814e-02
  -4.71425205e-02 -4.87217642e-02 -2.62572914e-02 -7.62674510e-02
  -4.35052589e-02 -2.36854516e-02 -6.79144263e-02  1.92690715e-02
  -1.89444944e-02 -5.56529760e-02  1.54612064e-02 -1.69145539e-02]
 [ 5.38362563e-03 -2.53299065e-02  7.87329897e-02 -5.14920726e-02
  -1.15598142e-02 -7.40189850e-02  5.74507490e-02 -1.97857879e-02
   3.88742164e-02  8.12836736e-03  2.77613699e-02  9.88171995e-03
   5.59883043e-02 -1.48501098e-02 -6.09433763e-02  3.77013311e-02
  -6.42169043e-02 -7.23434016e-02  4.01383638e-03 -2.69212723e-02
  -2.56703347e-02  2.61079594e-02  4.66491953e-02 -6.42667562e-02
   4.18428034e-02 -4.06718105e-02 -6.80756569e-03  7.20383152e-02
   7.45613128e-03  3.66002694e-02 -2.36846209e-02 -1.54141933e-02
  -1.24637857e-02  7.04015121e-02  2.88199633e-02  1.03207380e-02
  -1.67727619e-02 -6.51720017e-02 -4.16517779e-02  4.79638949e-02
  -5.29565439e-02  4.44259569e-02 -2.83708535e-02 -3.06905396e-02
  -2.73731500e-02 -7.66827986e-02 -6.39516413e-02  5.74312136e-02
  -7.64431059e-03 -2.11005993e-02 -7.02338442e-02  7.27659687e-02
  -1.47107244e-02 -5.41841760e-02  5.21694869e-03 -3.90823185e-03
  -4.94109020e-02 -8.08413848e-02 -4.43200581e-02 -6.71442971e-02
  -7.29399100e-02 -4.53874916e-02 -3.95113192e-02  4.74295393e-02
   7.96842575e-03 -2.22936757e-02 -2.37033591e-02 -5.61142713e-02
  -1.14985928e-02  9.36403126e-03  3.58488560e-02  4.21484634e-02
   7.55827054e-02 -7.98780471e-02 -6.82048500e-03 -5.12287617e-02
  -3.94026563e-02  6.58299103e-02 -1.22384205e-02  5.80663458e-02
   4.89632562e-02  8.02437291e-02  4.16109711e-03  1.66395977e-02
   4.11893800e-02 -5.12573123e-03  4.31708992e-02 -2.59272084e-02
  -2.14643143e-02  2.75502279e-02  2.91961506e-02  7.13246539e-02
  -1.88270211e-03  3.20126638e-02 -1.41734853e-02  6.72766492e-02
  -7.69695640e-02 -3.24723907e-02  1.05724409e-02  2.98886746e-02
  -7.33087063e-02 -6.92291036e-02  1.90410540e-02  5.09040058e-03
   4.13456559e-03  3.18243280e-02  6.54747710e-02 -5.63406870e-02
  -7.85314217e-02 -6.46604672e-02  3.61107588e-02 -8.84750485e-03
   2.14005783e-02  7.00908229e-02 -2.94846222e-02 -2.13295631e-02
  -7.87136108e-02  5.31762764e-02 -6.48350343e-02  3.63421738e-02
   4.77308258e-02  6.72096759e-03  1.92889571e-03 -2.54068524e-02
  -2.70982385e-02 -9.25213844e-03  7.62300119e-02  1.29463151e-02]
 [-2.11673751e-02 -2.69889385e-02 -7.54477829e-03  7.91889653e-02
   2.89928094e-02  4.23234925e-02  4.47320566e-02 -4.51716594e-02
  -2.48540081e-02  2.11027861e-02 -5.38990349e-02 -3.23869139e-02
   2.75543332e-02 -6.99765235e-02  4.97547537e-03  7.08727613e-02
   2.86987722e-02  4.59121540e-02 -3.70320678e-03  2.36155614e-02
  -1.75030157e-02  1.75896138e-02 -6.40548468e-02  7.59318098e-02
   4.81357202e-02 -7.15139210e-02  6.62095100e-03  5.61817065e-02
  -3.36020440e-03  1.38415843e-02 -9.67638195e-03 -7.53249228e-02
  -1.68250352e-02  5.03906980e-02 -4.32703942e-02  7.56212398e-02
   4.91276756e-02 -5.14795780e-02 -7.89677352e-02 -7.41130859e-03
   7.83176050e-02 -4.93170731e-02 -7.58287832e-02 -4.95611615e-02
  -5.14803082e-03  4.25879061e-02 -1.92277431e-02 -5.19143045e-02
  -7.87023008e-02  3.37287784e-05  3.30719128e-02  4.36031297e-02
  -4.60465997e-03  7.44685456e-02 -3.47490087e-02 -6.22763857e-02
  -4.41324562e-02  5.96811250e-02  3.67108211e-02 -4.75727767e-02
  -1.42007098e-02  1.97727904e-02  1.08356327e-02  7.96229318e-02
  -6.53958246e-02 -4.89663333e-02 -7.41440058e-02  2.66029835e-02
  -3.88514362e-02  5.93835488e-02 -1.53269544e-02 -2.75927968e-02
   1.56075731e-02  1.59296542e-02  6.13934621e-02 -2.87168734e-02
   2.96524242e-02  3.23274508e-02 -6.56020716e-02  7.97256753e-02
  -5.73017225e-02 -4.01362143e-02 -7.35036209e-02 -5.52760065e-03
   2.05522627e-02  1.56767070e-02 -1.53552517e-02 -5.51365092e-02
  -5.09442389e-02  8.76380503e-03 -3.30227576e-02 -5.90994954e-04
  -2.03486495e-02 -7.22324401e-02 -6.91817999e-02  1.24354362e-02
   5.08100539e-03  1.68860704e-02 -5.35963699e-02  7.88645670e-02
   4.26878482e-02 -6.12285957e-02  1.27623528e-02 -5.66121936e-02
  -1.76973268e-02  7.56667182e-02 -3.34506482e-03 -3.05688828e-02
   1.53344423e-02 -3.75439152e-02  4.85539809e-02 -7.39944428e-02
  -4.71944250e-02  7.71116838e-02  7.33981952e-02 -6.65788054e-02
   1.85882673e-02 -7.29067475e-02  1.86674148e-02 -7.63439909e-02
  -2.89880522e-02  4.70284373e-03  2.99199820e-02 -7.14647472e-02
  -6.19126707e-02  1.48645788e-03  2.32729465e-02  6.84257671e-02]
 [ 2.17626616e-02 -3.06455009e-02 -1.65771991e-02  1.40490830e-02
  -6.04528934e-03  4.08676118e-02 -4.23791260e-03  6.60855100e-02
  -7.98425004e-02 -1.54995695e-02  2.50351503e-02  3.46778631e-02
   6.23553172e-02 -1.11618638e-03  3.59640270e-03 -2.96558067e-02
  -2.99820043e-02  6.62115291e-02  1.63872764e-02 -2.62924694e-02
   1.87732726e-02 -8.10189471e-02  2.09746659e-02  5.27892783e-02
   7.52618983e-02  6.20385483e-02 -4.05119397e-02 -4.07019258e-03
   6.46208450e-02 -1.54525936e-02  7.39390627e-02  1.04390457e-02
   2.23941356e-02 -6.68682456e-02  4.86628935e-02  1.40701383e-02
   6.64975271e-02 -9.78508592e-03  4.10187393e-02 -1.49031207e-02
  -1.36711374e-02  6.69998154e-02  5.64727858e-02 -3.53838280e-02
  -7.41809607e-02 -4.33055684e-02  7.82911107e-02 -6.53925389e-02
  -8.03910345e-02  5.87195233e-02 -7.73897842e-02 -1.26124024e-02
  -2.18475014e-02  6.55516759e-02 -3.98601219e-02 -6.92246929e-02
   6.31792098e-03  1.21735185e-02 -7.59368986e-02  5.07254973e-02
   6.39808998e-02 -3.11435983e-02  1.72255710e-02 -3.68036069e-02
  -6.53732419e-02  5.61855212e-02 -6.42246008e-02  3.70735675e-02
   5.45646772e-02 -9.97200608e-04  3.64608318e-03  5.97220659e-03
   6.47168979e-02  1.31204948e-02  3.66403908e-02 -3.78736742e-02
   7.47972950e-02 -7.83193409e-02 -4.72753346e-02  1.48557946e-02
   5.88971302e-02 -1.92295201e-02  5.95895946e-03 -5.85968271e-02
   1.13729686e-02  1.48572475e-02 -1.98449045e-02  7.38359168e-02
  -5.04524857e-02 -6.78230748e-02 -5.19867092e-02 -5.15878201e-03
  -5.52145392e-03 -4.59227189e-02  1.01701915e-03  4.88620996e-03
  -8.25010240e-03 -2.15525366e-02 -1.53452307e-02  7.55470768e-02
  -3.60753648e-02  7.99433067e-02 -8.78233463e-03 -8.05378705e-02
   1.70814991e-02  4.60133031e-02  8.10064152e-02  7.62347504e-02
   1.28767937e-02 -5.15609160e-02  8.20206851e-03 -1.95552558e-02
   2.15841532e-02 -8.04562122e-03 -6.52054027e-02  3.17650735e-02
   4.14660722e-02 -8.05174261e-02 -5.31993918e-02  3.65449563e-02
   1.65156797e-02 -7.71890730e-02  1.70125589e-02 -7.54110366e-02
   9.52977687e-03 -1.57324448e-02 -3.61923426e-02  2.08907574e-02]
 [-1.76244453e-02  3.23156714e-02 -6.00004420e-02  3.46315131e-02
   7.33784512e-02 -2.33169608e-02 -1.96711496e-02 -7.70738572e-02
  -6.44178092e-02  1.09532550e-02 -1.53649971e-02 -2.11677626e-02
   9.61922109e-03  5.34010455e-02  5.26541844e-02 -7.57579058e-02
   7.55347833e-02  4.84406576e-02  1.95282027e-02  2.12585926e-02
   7.33569190e-02 -7.99625963e-02  7.98584148e-02 -1.40975788e-02
  -1.81766897e-02 -2.91120708e-02 -2.38524377e-03  5.96001521e-02
  -7.40621090e-02 -3.12900469e-02  6.42196462e-02 -4.78342697e-02
   9.42304730e-03  5.40108010e-02 -1.04504749e-02 -6.30894601e-02
   7.12193772e-02 -4.91429716e-02 -2.11823732e-03  3.06098014e-02
   4.72358093e-02  2.62177810e-02  3.49860564e-02 -1.31871551e-02
   5.19447401e-02  6.20628819e-02 -7.47502074e-02  2.20495090e-02
  -6.29748628e-02  7.16849416e-03  4.18600738e-02  2.36138701e-04
   4.14395183e-02  7.29604810e-03 -1.43815428e-02  1.78463683e-02
   5.90645000e-02 -5.37572242e-02 -6.96414709e-03 -4.02167216e-02
  -4.88665886e-02 -5.83506525e-02  2.95654014e-02  2.79553533e-02
   9.89972055e-03  1.65376663e-02 -7.30295628e-02  6.00124523e-02
   2.97470838e-02 -7.68414885e-02  6.73907474e-02  2.62046903e-02
  -5.73284291e-02 -5.03303818e-02 -7.57616386e-02  3.81616205e-02
   6.89526573e-02  4.00167629e-02 -4.84734215e-02  4.34190854e-02
   3.52892280e-02  7.94785991e-02  5.11982962e-02 -4.00107354e-03
   3.11613902e-02  5.36237583e-02 -5.05075976e-02  6.53818026e-02
   6.39572069e-02 -7.40118474e-02  3.63708362e-02 -5.01840673e-02
   4.37714905e-02  1.38099864e-02  4.98853624e-04 -9.05904919e-03
   4.28023115e-02  8.06521997e-02  4.10673320e-02 -6.07903153e-02
  -4.59670611e-02  2.33962908e-02  1.22318417e-03 -7.85945654e-02
   4.30008024e-03 -1.38441697e-02 -7.52039403e-02  4.83678281e-03
  -5.55692017e-02 -5.75122759e-02 -6.66121468e-02  6.28415495e-03
  -6.38929307e-02  8.08107182e-02 -7.62960687e-02  7.38796517e-02
  -1.26052648e-02 -7.54591078e-02 -3.64378095e-03 -3.44811566e-02
  -6.17156923e-03 -1.36128664e-02  1.45749077e-02  6.36936948e-02
  -7.15674162e-02  2.24302784e-02  4.72299755e-04  4.59862277e-02]
 [-6.01550937e-03 -7.56995007e-02  7.90236071e-02  7.04541132e-02
   2.83425972e-02  7.10255727e-02  2.21580267e-03 -6.27286509e-02
  -2.28917897e-02  1.82038173e-02  5.00027761e-02 -5.81897199e-02
   7.71872923e-02 -5.62254712e-02  8.03864077e-02  3.49393785e-02
   4.67479452e-02  3.76355574e-02  6.17793575e-02 -7.26042166e-02
   3.83543447e-02  1.76481158e-03 -5.70950359e-02  4.10637408e-02
   5.74562028e-02 -4.30667028e-02  7.72393718e-02 -8.89021903e-03
   7.59941265e-02  7.40491673e-02 -4.15104553e-02  2.58854330e-02
  -2.04903968e-02  2.29546428e-02 -7.99144208e-02  7.08427355e-02
   4.68751118e-02 -4.52993475e-02  5.48739731e-03 -5.71793504e-02
  -2.72713155e-02 -5.10056764e-02  1.74664706e-02  1.14240050e-02
   2.96438336e-02  3.81303132e-02 -2.93322168e-02  1.91465393e-02
  -4.13627662e-02 -1.51002556e-02 -3.51405516e-02  1.00648925e-02
   4.66179177e-02 -3.69770713e-02 -5.21860644e-02  5.82040921e-02
   7.92235881e-03  3.73236835e-03  1.03274658e-02  4.96308729e-02
   4.68681827e-02  4.46738377e-02  4.11533490e-02  1.01252049e-02
   6.15799800e-02 -2.65422799e-02  7.38948360e-02  3.38033065e-02
  -5.84135391e-02  4.47795913e-02 -7.17213452e-02  8.03178027e-02
  -2.61296965e-02 -1.82705373e-02  1.38358772e-02  4.85541448e-02
  -1.58154219e-02  6.57742545e-02 -2.44015492e-02  4.04767022e-02
   6.52102903e-02 -1.56798810e-02 -5.84049150e-02 -1.00518763e-03
   6.44746050e-02  7.10018501e-02  7.29084760e-03  1.47952288e-02
   3.37886810e-03 -5.20353243e-02  4.28711325e-02  5.36248013e-02
   2.57381350e-02 -3.08830515e-02  4.78758439e-02  8.31171870e-03
  -2.57131495e-02  2.06465945e-02  6.97255805e-02 -4.08679955e-02
  -7.09785968e-02 -6.57452121e-02  4.05299664e-02  2.18269229e-03
  -5.81043772e-02 -7.70348310e-02  5.09730950e-02  1.00801289e-02
  -3.07962224e-02  5.48398420e-02  7.88273439e-02 -6.75443858e-02
   4.77866009e-02 -3.88886072e-02  4.63288203e-02 -7.80481026e-02
  -4.27927822e-03  4.03442755e-02 -6.07516542e-02 -6.78140968e-02
  -2.62044221e-02 -3.76145020e-02  5.02995029e-02  1.14005432e-02
   1.09686032e-02 -6.77607059e-02 -7.91559517e-02  7.93736055e-02]
 [-5.27856499e-03  9.52904671e-03 -3.06293741e-02 -2.05902234e-02
   2.93837339e-02  7.52257928e-02 -2.03250162e-02  3.85532230e-02
  -7.19872862e-02  3.36610004e-02 -2.71073468e-02 -7.24770650e-02
  -5.03762886e-02 -2.99065262e-02 -2.90531665e-02  3.65576819e-02
   9.42160189e-03  1.34289190e-02  1.04158819e-02  2.87128910e-02
   1.18403360e-02  8.05408880e-02 -4.28328067e-02 -4.13913280e-03
   4.68857065e-02 -1.40720382e-02  3.26618254e-02 -3.73857878e-02
  -5.29965162e-02  4.11328524e-02  4.89853695e-02  2.90681943e-02
  -8.02030265e-02  1.92723349e-02  6.81515709e-02 -5.19072451e-02
  -5.38851693e-02 -6.25806302e-02 -6.28057867e-03 -6.43667728e-02
  -2.32384875e-02 -5.17888181e-02  7.25882873e-02  3.00246030e-02
  -3.47251482e-02  5.63078746e-02 -1.96893848e-02 -7.69606158e-02
   2.95308605e-02  2.01815069e-02  5.48462793e-02  5.78946993e-02
  -6.94943070e-02  4.93640229e-02 -2.05525309e-02  1.43863186e-02
  -4.33800407e-02 -2.42424533e-02  7.42254928e-02 -1.61153227e-02
   4.43394557e-02  4.29576710e-02  6.56410232e-02 -5.57043031e-02
  -7.40409940e-02  6.40015379e-02  3.34399417e-02  7.32300803e-02
   5.93214706e-02 -5.25839888e-02 -3.38413082e-02 -4.72124666e-02
  -6.74192086e-02  1.79084241e-02  2.59119868e-02 -4.24462147e-02
  -2.51466371e-02  4.52321246e-02  1.46405399e-02 -6.27908409e-02
  -7.61722475e-02  2.24008262e-02 -5.09596691e-02  5.93485460e-02
   2.58425623e-02  6.70942292e-02 -2.91464739e-02 -3.15329544e-02
  -8.05568397e-02  4.12243977e-02 -4.34681289e-02 -7.34423772e-02
   1.61747634e-02 -3.29261236e-02 -7.39455819e-02  4.94688675e-02
  -2.11481340e-02 -5.50127849e-02 -5.41463867e-02  6.17421493e-02
   5.06817326e-02 -7.78794289e-04 -3.45617384e-02 -5.47553897e-02
   3.74835432e-02 -2.58999206e-02 -7.63347447e-02  3.44545469e-02
   6.15157112e-02  3.61917615e-02  6.08968809e-02 -2.96576321e-03
   6.91956058e-02  1.32666156e-02 -5.33150956e-02 -5.88093363e-02
  -1.44383982e-02 -3.93885188e-02 -7.41229877e-02  7.38835856e-02
   3.83792520e-02 -2.51179188e-02  5.26611134e-02  3.97877023e-02
   5.11152670e-02 -6.86833337e-02 -5.93976825e-02 -5.67635372e-02]
 [-4.20856923e-02  7.77369514e-02  7.86262378e-02 -6.03491291e-02
   4.36015055e-02  4.29957286e-02 -2.70570070e-03 -2.03800201e-03
   6.97383285e-03  5.16754761e-02 -2.65967175e-02  6.56175837e-02
  -1.92301720e-03 -2.51376256e-02 -5.35005108e-02 -6.34409487e-04
  -6.73052147e-02 -6.84068948e-02  3.77511084e-02 -4.60312441e-02
  -2.35915668e-02 -1.20634586e-03  3.65765393e-02  2.50607505e-02
  -7.23986700e-02 -1.69478357e-02  8.10006484e-02  2.39945948e-02
   4.47284952e-02  2.69875675e-02  3.37989777e-02  3.91246304e-02
   1.29298568e-02 -9.96376574e-03  5.13506457e-02  3.48411798e-02
   1.39883012e-02 -4.12925296e-02 -4.96559963e-02 -1.56247094e-02
   6.73797354e-02 -6.81762099e-02 -5.70331328e-02  3.47054824e-02
  -6.62131757e-02  4.47633117e-03  1.57239512e-02 -1.36078596e-02
  -3.35357264e-02  4.36366573e-02 -2.00800188e-02 -2.48799026e-02
   4.88902256e-02  3.22622433e-02  2.82082185e-02 -6.45876005e-02
   1.43201500e-02 -5.16567752e-02  3.82907689e-03 -7.16018900e-02
   2.50638500e-02 -6.04053438e-02  5.87844923e-02  1.49747655e-02
  -8.01868960e-02  3.27369571e-02  2.32786536e-02  6.86612502e-02
  -4.03173566e-02  7.64294639e-02  6.07069209e-02  1.68865323e-02
   5.66295460e-02  3.45302373e-02 -5.96153177e-02 -4.73881513e-03
  -4.44821492e-02  7.63545856e-02 -5.53772524e-02  7.83728883e-02
  -6.17927909e-02 -6.42286986e-03  1.34852380e-02  5.95794097e-02
   7.13832900e-02  6.44004419e-02  6.48294613e-02 -6.25281855e-02
   3.81855667e-03 -1.64630413e-02  7.30360076e-02 -7.98641220e-02
   7.65623376e-02 -7.25188106e-03  7.84000382e-02  1.31978691e-02
  -6.39612675e-02 -7.46944323e-02  7.23495558e-02 -3.68331186e-02
   2.60232240e-02  1.58559754e-02 -2.36952566e-02 -1.63894966e-02
   2.05617175e-02  1.87551156e-02 -6.10916242e-02  1.68441013e-02
  -1.76813155e-02 -2.80934460e-02 -7.77435824e-02 -6.73061609e-02
   7.04464093e-02 -7.80956522e-02  1.74008310e-04  1.38423964e-02
   1.04439184e-02 -3.63174826e-02 -3.30711789e-02 -1.75626948e-02
   7.20128044e-02  1.82956383e-02  4.10894752e-02 -3.16493213e-04
   4.96850684e-02 -6.13676570e-02 -1.59929842e-02  3.69848832e-02]
 [-2.19248347e-02  7.04704300e-02 -4.76914756e-02 -7.49596432e-02
   2.25507617e-02  1.11803636e-02  8.92671198e-03 -3.21014822e-02
  -7.16422349e-02  9.68063623e-03 -2.76156142e-02 -4.94766347e-02
   1.19563490e-02  3.96999419e-02 -1.23257488e-02  6.40375093e-02
   6.16924986e-02  5.73489890e-02 -4.86489162e-02  2.72563472e-02
  -2.30946690e-02 -4.08805870e-02  7.68331215e-02  3.45648900e-02
  -2.25268193e-02 -1.54456347e-02  2.62494758e-02  4.30328771e-02
   5.95054403e-02 -7.73495808e-02 -3.54693085e-03 -4.98233736e-03
  -1.08680055e-02  2.12819949e-02 -5.53885065e-02 -5.72357997e-02
   5.72713390e-02 -4.06381413e-02  1.22760460e-02  4.47402969e-02
  -2.59318464e-02  7.24435970e-02 -4.24309559e-02 -9.93524492e-03
  -2.21026503e-02  5.41172102e-02 -1.79167837e-02 -7.06138611e-02
   7.04396740e-02  2.36113667e-02  1.79561526e-02  1.09235868e-02
  -3.44994105e-02  6.33088723e-02  6.45077899e-02  4.25167233e-02
  -2.57698521e-02  4.53340188e-02 -5.17207459e-02 -3.58817913e-02
  -7.13360310e-02  3.04944664e-02 -5.29405698e-02 -4.55303453e-02
  -2.65507698e-02 -3.75480168e-02 -5.83261475e-02 -6.85414895e-02
  -1.82450488e-02 -7.31389374e-02  3.95382568e-02 -3.00478712e-02
   3.90078872e-02  2.96670422e-02  2.15346664e-02 -1.72026977e-02
  -1.40464529e-02  4.82296571e-02  3.37276980e-02  6.53445944e-02
  -8.08073655e-02  2.15376839e-02  1.15249306e-02  1.00338459e-03
  -2.85072066e-02  7.84382895e-02  6.96524978e-04 -8.05707276e-03
  -3.11806500e-02  2.29823515e-02  1.67816877e-04  6.48291335e-02
  -3.38862725e-02  9.07422602e-03 -3.64941359e-02 -4.38735746e-02
   2.23197639e-02  2.08827555e-02 -8.08255449e-02  6.32444993e-02
  -7.67745227e-02  2.22309008e-02  6.27052858e-02 -6.55677021e-02
   1.72021911e-02  2.13468522e-02 -8.06636289e-02  4.17188033e-02
  -6.73960224e-02 -3.46314348e-02  7.72147551e-02 -7.10988045e-02
   4.65846881e-02  3.61245275e-02  8.89393687e-03  7.54347816e-02
  -4.76544835e-02  5.88397905e-02 -7.46137723e-02 -1.35151520e-02
   4.84782532e-02 -1.06065348e-02 -3.71771865e-02  2.71188170e-02
  -5.36897331e-02 -3.01427618e-02 -2.69454829e-02  5.62831685e-02]
 [ 7.10603669e-02 -3.59106436e-02 -1.17297396e-02  4.64624837e-02
  -6.68814331e-02 -2.04026699e-03  6.81258366e-02 -7.29673728e-02
   4.87195700e-03  7.74873793e-03 -8.01383406e-02  8.00257102e-02
  -3.06203961e-04 -2.89089009e-02  2.10772008e-02  3.71606871e-02
   5.54578975e-02  7.53955022e-02  4.67997864e-02 -6.27659559e-02
  -5.76582626e-02 -3.25245447e-02  1.12795830e-02  3.78424451e-02
   2.35595629e-02  6.83178082e-02  2.72853151e-02 -1.95674412e-02
  -6.07330129e-02  5.58147803e-02  2.81615555e-02  6.16751537e-02
   7.44088516e-02 -5.62479794e-02  3.93699184e-02  2.81773359e-02
  -1.86416954e-02 -8.75829905e-03  8.10262635e-02 -1.83068886e-02
   3.47111672e-02 -3.71561646e-02 -6.29190728e-02  4.37510833e-02
  -1.95862353e-02  6.17035255e-02  6.54347017e-02  3.27854976e-02
  -2.74161585e-02 -5.72359562e-03 -4.97182272e-02 -2.38317847e-02
   5.08470014e-02 -8.24511796e-03 -1.08050853e-02 -4.61824313e-02
  -4.50068973e-02  7.54710063e-02  3.99372801e-02 -9.55060869e-03
  -1.68444216e-03  4.99733612e-02  3.39593291e-02  6.38513342e-02
  -4.52926382e-02  6.94672987e-02 -2.06809789e-02 -1.18529275e-02
  -7.16926306e-02  1.37381181e-02 -7.58483708e-02  1.26533583e-02
   4.30367067e-02 -7.70096928e-02 -1.56553239e-02  1.59323066e-02
  -2.00759023e-02  8.85670632e-03  9.55257565e-03  7.17329606e-02
  -6.38543889e-02 -4.66014557e-02  6.34700283e-02  5.57377115e-02
   6.84321895e-02 -7.37957433e-02 -7.57999271e-02 -3.09032016e-02
  -1.72946081e-02  1.10566616e-03  6.14904240e-02  4.39960584e-02
   7.67561719e-02 -5.29353656e-02 -2.66169272e-02 -3.54312845e-02
  -4.26500775e-02  6.09510913e-02  4.40189019e-02  7.14883134e-02
  -1.84906647e-02 -3.32755297e-02  5.48825189e-02 -6.73026815e-02
  -6.88686967e-02 -1.48666501e-02  4.17606905e-02 -3.50884758e-02
  -1.63406879e-03  6.58432171e-02 -3.53228375e-02  5.82814589e-02
   2.29026005e-02  5.55805340e-02 -7.68570974e-02  3.38412896e-02
  -8.08339417e-02  2.43791193e-02 -2.10108683e-02  1.97139457e-02
   1.29130334e-02  1.55855864e-02  3.29740047e-02 -6.47583008e-02
   1.46031380e-05 -5.74339963e-02 -2.13053152e-02  6.62374869e-02]
 [-6.01129681e-02 -6.77341372e-02  4.28263843e-03 -1.02139488e-02
  -6.36157542e-02 -7.45487809e-02  7.19177052e-02  4.63233143e-03
   6.93622306e-02 -5.30924909e-02 -4.93785702e-02 -4.33029607e-02
   3.48590836e-02  7.25805834e-02  7.80251846e-02  3.67466584e-02
   3.79900634e-03 -6.79958612e-02  7.79284015e-02  7.17911795e-02
  -3.19764204e-02 -1.98098049e-02  7.36450031e-02 -2.67657638e-03
   7.23583251e-03  1.46523565e-02  3.96553427e-03 -3.39300707e-02
  -5.02886884e-02 -1.75924152e-02 -5.21851182e-02 -2.24656686e-02
   3.61716896e-02 -4.72387075e-02 -7.15976357e-02 -5.05803674e-02
   1.64697543e-02  2.72624195e-02 -4.15077060e-02  5.10032550e-02
  -5.91535121e-03 -3.36304642e-02  7.09541142e-04 -5.10480851e-02
  -3.29212882e-02  3.04693654e-02 -3.77754122e-03  2.81952322e-04
  -4.34806794e-02 -4.02946174e-02  5.61110452e-02  6.89529255e-02
   5.75561002e-02  2.50253081e-02  2.56808549e-02  1.30662099e-02
  -7.84748048e-03 -5.46245500e-02 -6.06678240e-02 -7.86576867e-02
  -6.49876744e-02  1.11088455e-02 -4.56264168e-02 -6.96185157e-02
   4.92488518e-02 -5.72356805e-02  4.08113375e-02 -9.07097757e-03
  -6.15469813e-02  5.84314987e-02  5.13638034e-02 -4.62918691e-02
  -3.79193909e-02  7.07400218e-02  3.32645625e-02  2.58456767e-02
   1.16585940e-02 -6.70613348e-03  2.37158164e-02  2.74775401e-02
  -6.10726513e-02  4.70408723e-02 -5.34628779e-02  1.65806785e-02
   6.55223206e-02  5.87628260e-02 -7.00982064e-02 -3.43319587e-02
   6.57028630e-02  4.75502834e-02 -6.76114559e-02  1.90047175e-02
  -7.20815808e-02 -6.65070415e-02 -1.58378333e-02 -4.31277342e-02
   9.73805040e-03 -7.74069577e-02 -3.40977162e-02 -4.64856960e-02
   4.91587445e-02  6.87798187e-02  5.16288951e-02 -7.50346705e-02
  -1.69027373e-02 -7.71273449e-02 -6.71985447e-02 -1.69778466e-02
  -5.57183623e-02  5.70900217e-02 -6.80944622e-02  1.35547742e-02
  -2.27197967e-02 -2.08723098e-02  6.68692365e-02 -1.86106786e-02
   7.14906305e-03 -3.45268920e-02  1.96339265e-02 -3.59251462e-02
  -6.04251474e-02 -3.76558676e-02 -2.50550508e-02 -7.29009807e-02
  -2.40914039e-02  7.02474192e-02 -5.55317849e-02  7.26319104e-03]
 [ 2.69006416e-02 -6.74491823e-02  7.87331909e-03 -3.13938558e-02
   3.84906605e-02 -5.35100996e-02  4.12508845e-04 -4.81495634e-02
   7.87081793e-02 -3.15991305e-02  2.03364491e-02 -2.46308073e-02
  -4.43769246e-03  5.27529642e-02  2.74351686e-02  1.85755193e-02
   6.54854625e-03 -5.88515513e-02 -6.11987561e-02 -5.14047220e-02
  -4.27668244e-02  5.52015826e-02  1.86748430e-02 -2.68082991e-02
  -7.05999732e-02 -1.14800036e-03 -6.86149150e-02  1.25702024e-02
   4.13892195e-02 -3.45483162e-02 -7.36833736e-02 -4.16396149e-02
   2.81310603e-02 -2.59936713e-02 -6.35592639e-02  6.70477748e-04
   2.11089328e-02  2.45644525e-02  5.15099242e-02 -7.54458457e-02
   2.76046097e-02  6.21887818e-02 -2.61363685e-02 -1.86058059e-02
   8.85494798e-03  7.65851960e-02 -5.98822236e-02 -7.11226091e-02
  -2.46792659e-02 -1.93284191e-02  6.65422156e-02  7.49458745e-02
   5.53630963e-02  3.05704102e-02  4.63019386e-02 -7.88057968e-02
  -6.94905370e-02  2.87547559e-02  7.56484643e-02  5.28813377e-02
   4.67903912e-03  4.45478037e-02  1.24402866e-02  3.09714302e-02
   5.30149564e-02  5.14434353e-02 -2.56165378e-02  3.76089141e-02
  -1.65920705e-03 -4.05680202e-02 -3.39859016e-02 -6.20098449e-02
  -1.32927299e-03  3.13274860e-02 -6.97165057e-02  1.75709128e-02
  -6.60056025e-02 -1.22756660e-02  1.59213021e-02 -4.12946567e-02
  -8.08470100e-02  5.07218391e-03  3.21765691e-02 -2.16944963e-02
  -3.05477083e-02 -4.31745127e-02 -6.07361272e-02 -2.46390812e-02
   1.70779973e-02  3.87464464e-02  7.10971579e-02 -3.68816182e-02
  -5.76196834e-02  7.60705546e-02 -9.21469927e-03 -7.99236447e-03
   2.54844204e-02  1.79348886e-03  1.56662837e-02  4.35369313e-02
  -1.09523237e-02  3.45857590e-02  7.55170211e-02 -3.02833915e-02
  -1.59727782e-02 -1.28941387e-02  2.57653072e-02 -2.55709365e-02
   2.89728567e-02 -2.23796926e-02  5.59727177e-02  1.14936233e-02
   1.11301392e-02  3.30257714e-02  2.80265510e-02 -5.01141213e-02
  -4.62150760e-02 -2.95743532e-02 -7.49814510e-02 -2.13153511e-02
   1.53415948e-02  2.72041336e-02  6.54729679e-02 -2.63097771e-02
   4.55306992e-02  1.37278140e-02 -7.02751130e-02 -2.83532552e-02]
 [ 7.73545280e-02  7.82211944e-02 -2.00499594e-03 -6.39949217e-02
  -4.70341109e-02  7.92925581e-02 -6.23039007e-02  8.07780251e-02
   3.31976563e-02 -6.01396374e-02  5.09273782e-02 -6.89308867e-02
   2.52375826e-02  3.02274674e-02  4.72704992e-02 -7.01709539e-02
   1.23625994e-03  1.55364126e-02  4.24297750e-02 -4.38274704e-02
  -8.04419070e-03  1.87751502e-02 -7.78752789e-02  2.68789828e-02
  -5.63679524e-02  4.76104096e-02 -4.32233252e-02  2.29895413e-02
  -1.69438869e-02 -5.92631288e-02 -9.65483487e-04  3.89235467e-03
   1.64118335e-02 -6.46005198e-02  3.36123854e-02  5.61769828e-02
  -2.20444836e-02  7.73335770e-02 -4.16313373e-02 -6.00126982e-02
   5.78356907e-02 -3.43531184e-02  8.83936882e-05  6.16794750e-02
   5.19080535e-02 -6.67637810e-02  6.36383221e-02  3.45917791e-03
  -4.23744097e-02  1.07490271e-03  3.74887437e-02 -1.79532915e-03
  -1.02250502e-02 -1.86228976e-02 -6.03243373e-02  5.77665791e-02
   6.29745200e-02 -3.69908623e-02 -5.51730394e-02 -5.95398024e-02
   3.59871984e-03 -7.83137307e-02 -2.40949616e-02 -3.96069251e-02
   7.75792822e-02 -4.47433740e-02  6.59714639e-03 -2.73777135e-02
  -2.62107849e-02  4.90210205e-03  3.45987678e-02  5.86643890e-02
  -4.21141386e-02  2.13568732e-02 -5.37289530e-02  6.65250346e-02
  -5.56677915e-02 -2.33835615e-02 -5.08994088e-02 -7.54505247e-02
   6.80559129e-03 -4.52993102e-02 -3.03686336e-02  6.06354699e-02
  -2.02974603e-02 -2.72949077e-02 -3.34311239e-02  7.53625408e-02
   4.90281060e-02  3.08286920e-02 -3.26964632e-02  2.78880894e-02
   4.43311259e-02 -7.57960230e-02 -3.22876312e-02 -2.58304961e-02
   7.58477077e-02  1.07319057e-02  1.65173262e-02  7.93498382e-02
  -2.88836658e-02 -5.30011170e-02  6.01708069e-02  6.82542250e-02
   5.11241779e-02 -5.79809248e-02 -2.07143165e-02 -5.01299798e-02
   8.06987658e-02 -7.52499104e-02  4.91480902e-02 -6.86359182e-02
   3.09103355e-02 -2.61407793e-02  4.34971899e-02  1.62626803e-02
  -7.25668743e-02  6.82752803e-02 -1.98390447e-02  4.61300984e-02
  -3.94007601e-02  7.81284198e-02  7.36244693e-02 -4.36319038e-02
   6.96059093e-02 -7.68770501e-02 -5.65595180e-03  1.67766139e-02]
 [ 6.12196401e-02 -6.41048551e-02 -9.95060056e-03  6.04328439e-02
  -7.47030377e-02  8.87053460e-03 -6.92240000e-02  2.49268785e-02
  -7.99784064e-03 -5.06290235e-02 -5.92702478e-02 -2.56287195e-02
   7.94165358e-02 -3.39447483e-02 -4.63139117e-02  7.69870803e-02
  -4.36378419e-02  3.45669016e-02 -2.80124545e-02  6.99928328e-02
  -2.98192129e-02  6.75975308e-02  4.42327037e-02 -2.22409517e-03
  -5.82050160e-02  6.71960935e-02 -1.04020908e-02 -5.79574630e-02
   3.95919383e-02 -5.15636243e-02 -8.88581574e-03  1.47690624e-02
  -5.56311086e-02  6.06926307e-02  1.42317861e-02  3.98440734e-02
   5.80356270e-03  6.79182932e-02 -6.74132705e-02 -5.83730265e-02
   1.92444921e-02 -7.74778724e-02  2.42516398e-05 -6.26190603e-02
   1.86358914e-02 -7.33180493e-02 -5.09161577e-02 -1.01989433e-02
  -5.13398424e-02  8.01560357e-02  6.05456010e-02  3.87865752e-02
  -3.14184129e-02  6.12099543e-02  6.10431656e-02 -2.99025811e-02
  -1.97245069e-02 -4.87263091e-02  1.97829828e-02 -1.29469335e-02
   4.94018197e-03 -3.68452817e-03  7.66465738e-02  6.67115301e-03
   1.00276619e-03 -1.09484047e-03  7.21882656e-02 -3.67503874e-02
   3.39811072e-02 -7.45609999e-02  7.51138255e-02  7.64468387e-02
  -5.28800786e-02  4.22735512e-03  4.08284664e-02 -7.52218664e-02
  -1.67911947e-02 -1.14206001e-02  5.19449040e-02 -3.67599614e-02
   1.30663067e-03  6.87248185e-02 -7.82452971e-02  3.75698507e-03
  -2.81482115e-02 -6.56235516e-02  6.99804202e-02 -7.82469735e-02
   7.28145167e-02 -1.83614045e-02  4.78306338e-02  4.37553003e-02
   1.16230547e-02  4.11090702e-02 -6.63185939e-02 -7.28787631e-02
   2.97556520e-02  7.25217536e-02  3.83191109e-02  4.05425578e-03
   1.83932781e-02  4.37715873e-02  1.09036863e-02 -5.89220226e-03
   5.73088601e-02  4.70048711e-02 -4.04117294e-02 -3.09713706e-02
  -5.19548357e-03 -2.39535794e-02 -1.82638243e-02 -3.05917412e-02
  -5.90519346e-02  3.46398279e-02  2.88262665e-02  6.89978525e-02
   1.01536736e-02  1.90367997e-02  3.68576199e-02  2.63330787e-02
  -3.55714299e-02  4.17643264e-02 -1.47314519e-02  6.93197921e-02
   9.56783444e-03 -3.54080983e-02  2.11365521e-02  4.71103564e-02]
 [-4.08942960e-02 -4.63894382e-02 -3.04982066e-04  2.75458675e-02
  -4.64996770e-02  8.71298369e-03  2.55464744e-02  5.19521944e-02
   4.61630411e-02 -2.15486549e-02  1.04675693e-02  1.37329949e-02
   7.83139840e-02 -2.78508868e-02 -3.35339755e-02 -4.82276157e-02
   6.89069927e-03  2.68902052e-02  1.06778424e-02  4.91764843e-02
  -3.36931311e-02 -3.17642801e-02  5.45968078e-02 -3.54315527e-02
  -5.57710193e-02  1.17516369e-02 -6.72644898e-02  3.68005335e-02
  -1.41351838e-02 -4.16787341e-02 -2.09002327e-02  1.45662902e-02
  -2.95234360e-02 -4.83460799e-02  1.87560990e-02  2.15169974e-02
   2.42466293e-02  6.29450381e-03 -3.34634781e-02  3.92003974e-04
  -7.26006255e-02 -2.66396571e-02  4.11263704e-02 -9.59561318e-02
   5.61280213e-02 -6.96211830e-02 -4.73470800e-02  6.52682260e-02
  -6.79912716e-02  3.15755159e-02 -3.27330902e-02  7.28336796e-02
   2.36666575e-02 -1.20173823e-02 -8.15816969e-03  1.41365817e-02
   7.74130449e-02  7.15177804e-02 -5.18709375e-03 -8.54099318e-02
   5.38894488e-03  1.00783063e-02  4.13647369e-02  2.03015432e-02
   7.66476467e-02 -3.61794457e-02 -2.57869251e-02  6.30773604e-04
   6.01623952e-03  2.40409300e-02  6.44608364e-02  6.79331250e-04
   2.54441779e-02 -1.25365863e-02  7.09934235e-02  3.67528051e-02
   1.32531412e-02  1.37503659e-02  3.78757268e-02 -2.74633821e-02
   4.02978398e-02 -8.01873207e-02 -8.06705877e-02 -6.12781793e-02
  -1.96417570e-02  3.72651825e-03  3.85130160e-02 -1.36331897e-02
   6.41625896e-02  8.13438371e-02  4.55682203e-02  2.19797790e-02
  -7.52191469e-02  3.82954106e-02  1.09717315e-02 -9.45067848e-04
  -7.28500038e-02  2.38559172e-02  5.54997288e-02 -7.89406449e-02
  -4.60292548e-02 -6.85460344e-02 -1.72013249e-02 -6.13172874e-02
  -3.66430543e-02 -6.85554892e-02 -4.97732982e-02 -7.46153593e-02
   5.24942800e-02 -5.33108786e-02 -1.43370703e-02 -3.37647498e-02
  -3.78028750e-02  5.68196401e-02 -1.39406193e-02 -2.41108760e-02
   3.03284526e-02  7.28411898e-02 -6.30489215e-02 -1.87500082e-02
  -2.43977457e-03 -6.35772645e-02  4.80855145e-02  4.89949360e-02
   2.57624649e-02  5.90192080e-02  5.22607528e-02 -6.44471915e-03]
 [ 1.14960387e-01 -5.57724498e-02 -1.40973888e-02 -1.11625560e-01
   3.35761607e-02  8.56526792e-02 -4.34783666e-04  4.98170368e-02
   2.35206224e-02  4.46176864e-02 -5.35057113e-02 -1.06125839e-01
   4.57995906e-02 -8.60602707e-02  7.07889944e-02 -5.18294759e-02
  -7.15683997e-02  2.51006801e-02 -2.39713993e-02 -6.55205846e-02
   7.22502097e-02  4.80900779e-02 -3.81917357e-02 -1.97387636e-02
  -5.18776737e-02  6.67394325e-02  1.13137156e-01 -7.82113969e-02
   4.24845479e-02 -6.44972548e-02 -2.75215302e-02 -1.16155273e-03
   1.52459890e-02  6.10405132e-02  4.16102782e-02 -1.92440934e-02
   2.43906886e-03  9.64420848e-03 -1.02826580e-02  3.78019474e-02
  -5.30363210e-02 -1.64541788e-02  3.92565541e-02  3.19159180e-02
   1.33464914e-02  7.97637552e-02 -6.71125799e-02  5.49907014e-02
   8.75497982e-02  1.34070292e-02  1.98331214e-02  5.53918108e-02
  -2.52331160e-02 -8.17288761e-04  2.20939144e-02  2.78118681e-02
   6.41711876e-02  5.66794313e-02  5.50143830e-02  4.40094732e-02
   2.70406790e-02 -6.36991337e-02  7.84852430e-02 -8.00922960e-02
  -7.34414905e-02  1.45170512e-02 -1.04490712e-01 -5.92502207e-02
  -2.54438072e-02  4.33096141e-02 -6.18515238e-02  3.42474207e-02
  -5.72104640e-02  1.03790365e-01  3.48060429e-02  1.92112699e-02
  -1.82351132e-03 -6.19199574e-02 -7.69898295e-02  2.53360029e-02
  -3.36248167e-02  6.17390359e-03  2.69308109e-02  7.88405910e-02
   3.14331017e-02  1.02874767e-02  2.10540444e-02  1.17583252e-01
  -7.59422779e-02  5.14077842e-02 -8.61037076e-02  9.25608650e-02
   8.53502192e-04  1.15149893e-01 -2.33643111e-02  6.32164776e-02
  -5.66717461e-02 -1.02166086e-03  4.05357704e-02  5.25528714e-02
   3.09512205e-02  4.51805368e-02  3.73818800e-02  5.92642538e-02
   8.39425921e-02 -7.05763400e-02  1.17591947e-01  8.47487152e-03
   1.68478563e-02  5.03251441e-02  8.25932622e-02  5.93845779e-03
  -9.98399407e-03 -1.42337671e-02 -3.99426073e-02  1.91644654e-02
   1.84734352e-02 -3.75098325e-02  4.04829532e-02 -1.11969963e-01
  -4.29790989e-02 -7.70385936e-02 -1.79759189e-02 -9.21384916e-02
   7.34141245e-02  3.49622034e-02  6.95628524e-02 -1.79939531e-02]
 [ 9.40652192e-02  3.38017456e-02 -1.00459367e-01 -1.17449664e-01
  -1.00101866e-01  1.10497363e-01  2.49361675e-02  1.84847161e-01
   2.47256830e-02  3.85065600e-02  3.39567512e-02 -6.77345768e-02
   3.90915051e-02 -7.36201480e-02  9.37763080e-02  4.57519218e-02
   6.43932894e-02  4.00014594e-03  8.42294097e-02  5.57124093e-02
   6.33549690e-02  3.83590460e-02 -1.36130065e-01 -4.71274368e-02
   1.72753781e-01 -2.15269513e-02  1.36767179e-01 -7.44383931e-02
   1.71335071e-01  2.63831615e-02  1.39501870e-01  6.23596925e-03
  -2.99084783e-02 -1.26442090e-02 -5.93333244e-02  5.60136475e-02
   4.09505293e-02 -1.55109569e-01 -3.44915017e-02  4.60022688e-02
  -6.43639639e-02 -1.28514215e-01  1.84055805e-01 -5.81922531e-02
  -3.45874280e-02  7.64337853e-02 -1.80518329e-02 -2.12773122e-02
   1.11079350e-01 -7.33055770e-02 -5.01941592e-02 -6.24949448e-02
  -1.89627111e-02 -4.13965844e-02 -4.07869481e-02  3.33644003e-02
  -3.29694599e-02  1.01282433e-01  1.93300247e-02  9.12878886e-02
  -1.44796684e-01 -7.76552316e-03  7.61695905e-03 -2.65205652e-02
  -3.72466296e-02 -1.29100112e-02  1.51257077e-02 -1.83710098e-01
   3.01715191e-02 -1.19291767e-02  5.67852333e-02  3.79374549e-02
   1.18109463e-02  1.25746682e-01  5.32952361e-02 -4.61468101e-02
  -7.04802796e-02 -1.29303545e-01 -4.12771553e-02  5.19597307e-02
  -1.02648422e-01 -1.35783732e-01 -1.03344508e-01 -9.56484750e-02
  -4.18558344e-02  1.25232022e-02  6.14005513e-02  6.92284703e-02
   6.84725642e-02  6.13515526e-02  3.58067453e-04  1.51785403e-01
  -3.16067301e-02  1.63774341e-01  9.36319679e-03  6.21806644e-02
  -8.09834227e-02 -8.47697034e-02  7.74056092e-02 -1.89033598e-02
  -3.77547964e-02  4.28066626e-02 -4.86061238e-02  1.03522852e-01
   7.91875497e-02  1.28617138e-03  1.42189384e-01 -6.46273792e-02
   1.00963144e-02 -7.93698728e-02  1.44424932e-02 -1.07888810e-01
   2.33450383e-02 -6.03257343e-02 -5.98042049e-02 -3.71752307e-02
  -1.44415960e-01 -3.86091508e-02  2.26658154e-02 -5.25915734e-02
  -4.96716425e-02 -1.12613991e-01 -1.11710481e-01 -8.08414668e-02
   3.42411958e-02  4.59291376e-02  4.32667211e-02 -1.30785197e-01]
 [ 1.61062535e-02  4.96749170e-02 -4.54656370e-02 -1.18141048e-01
  -2.43118722e-02  2.11060181e-01  7.11383969e-02  1.02950059e-01
  -9.73876566e-02  1.81339383e-02  3.24891992e-02 -1.05519518e-02
   8.65287334e-02 -9.00593996e-02  6.36054501e-02  1.71029586e-02
   5.03228381e-02 -1.24131657e-01  2.27606483e-02 -4.19360362e-02
   7.20509961e-02  4.82174680e-02 -2.47350838e-02 -5.93347177e-02
   9.67061967e-02 -7.18155690e-03  2.07263991e-01  7.77894929e-02
   1.77412897e-01 -1.04035452e-01  1.08287930e-01 -9.22579132e-03
  -6.00339174e-02 -5.14862053e-02  7.79125914e-02  1.67005807e-02
   1.27581313e-01 -1.92648590e-01  1.08967191e-02  1.61127493e-01
  -1.61626801e-01 -7.66319036e-02  1.46627083e-01  1.04212426e-02
  -3.65509018e-02 -8.38866979e-02  9.45473611e-02 -4.24831212e-02
   8.92375931e-02 -8.07758942e-02 -8.43763053e-02  2.37629842e-02
   8.07455108e-02 -2.78405901e-02  5.25148846e-02  1.53890237e-01
  -7.74470642e-02  1.20988131e-01  2.71094614e-03  5.70481308e-02
  -9.69242379e-02 -3.48891802e-02  1.51657918e-02  6.11895695e-02
  -5.92469648e-02 -4.20508571e-02  2.21938509e-02 -1.92075416e-01
   5.62283136e-02  2.32659280e-03 -4.78859432e-02  1.21757865e-01
  -8.02843645e-03  1.66539147e-01  7.11989477e-02 -8.94054919e-02
  -3.73539738e-02 -1.12537079e-01 -1.54916327e-02 -7.68069625e-02
  -1.53683752e-01 -1.55836031e-01 -1.41558781e-01  1.36818755e-02
  -1.36983961e-01  4.70668413e-02  1.65106818e-01  4.89927121e-02
  -6.75398558e-02  6.91634417e-02 -2.08715331e-02  9.22392756e-02
   1.00481734e-01  1.00841708e-01  5.90694249e-02  7.06865266e-02
  -2.00372618e-02  2.52490118e-02  1.35957841e-02  3.15772519e-02
  -4.17020470e-02 -3.67243588e-02  1.97650073e-03  9.01876837e-02
   1.52406916e-01 -8.15140642e-03  9.78028476e-02  6.19825236e-02
   8.66996720e-02 -7.24241883e-03  1.32155687e-01  3.16071436e-02
  -9.49604716e-03 -5.41223818e-03 -1.40381664e-01  7.04383329e-02
  -1.63792044e-01 -3.73734981e-02 -1.33748110e-02 -1.18200488e-01
  -5.24309650e-02 -2.30692532e-02 -1.42354488e-01  4.49906848e-03
  -1.10907620e-02  4.45767157e-02 -4.11919393e-02 -1.43679857e-01]
 [ 2.00358197e-01  1.45368040e-01 -3.93367596e-02 -1.40196279e-01
  -2.04056650e-01  2.83582866e-01  5.37686720e-02  2.45335877e-01
  -1.09208807e-01  1.60952676e-02  3.12309880e-02  8.74331221e-02
   5.92691414e-02 -1.17115311e-01  1.25056744e-01  1.96099877e-01
  -2.78187245e-02 -2.84557510e-02  1.22166663e-01  1.12579688e-01
   1.64294075e-02  4.58476804e-02 -2.71580592e-02  2.02524856e-01
   1.99962199e-01  5.33778332e-02  2.29565263e-01 -6.06060177e-02
   2.89925218e-01 -4.90561835e-02  1.72052011e-01  1.08381018e-01
  -2.34600268e-02  4.70001921e-02 -6.15174323e-03  2.02011183e-01
   2.41744682e-01 -2.27006465e-01 -1.12734638e-01  1.78718776e-01
  -6.18265532e-02 -5.12206405e-02  2.19055653e-01 -4.06402387e-02
  -8.99944156e-02 -4.35805023e-02  7.49302376e-03 -6.63935691e-02
   3.86392809e-02  2.59001702e-02 -1.51653156e-01  9.02449638e-02
  -5.10025024e-02  2.75065955e-02  5.04274964e-02  2.38092184e-01
  -5.95551804e-02  1.99635401e-01 -1.45215407e-01 -4.47290987e-02
  -2.72161439e-02 -1.94604471e-02 -6.74942806e-02 -4.68964614e-02
   1.50562599e-02 -2.69355386e-01 -1.25822097e-01 -1.18995816e-01
   7.94484466e-02 -1.58925802e-02  1.42550319e-02  1.87300071e-02
  -1.60612375e-01  1.45133778e-01  7.00718015e-02 -2.96495948e-02
  -1.61555439e-01 -1.61545828e-01  2.59697847e-02 -9.82572958e-02
  -7.40442201e-02  6.08974025e-02 -6.14741258e-02 -1.44339398e-01
  -1.29997700e-01  1.53384134e-01  2.02583253e-01  1.57787696e-01
  -1.20313130e-01  3.09612185e-01 -9.12633985e-02  1.51410535e-01
   1.08048439e-01  2.36976609e-01 -1.50212785e-02 -8.01940113e-02
  -8.47098082e-02  9.96864736e-02  1.38572395e-01 -3.03158574e-02
  -1.21126167e-01 -3.41406018e-02  1.39551675e-02  2.30400547e-01
   1.82689339e-01 -5.56188263e-02  1.63279310e-01 -1.18145220e-01
   1.88312069e-01 -1.23847686e-01  8.64354298e-02  1.00105748e-01
   3.72638553e-03 -1.23228431e-01 -5.87821044e-02  1.04650624e-01
  -2.56910771e-01 -1.49746165e-01 -4.13386337e-03 -1.36657298e-01
  -6.32878393e-03  4.41915691e-02 -1.49205908e-01 -2.30183646e-01
  -9.77601260e-02  7.16761574e-02 -4.70331088e-02 -4.98078316e-02]
 [ 4.85159718e-02  7.95981586e-02 -6.21566996e-02 -1.54480636e-01
  -6.55276403e-02  1.68873996e-01  2.19896659e-02  1.20399386e-01
  -1.05753466e-01 -1.00625649e-01  1.05897211e-01  8.33800361e-02
   1.03037797e-01  2.23175697e-02  1.18676580e-01  1.84230387e-01
  -8.58684629e-03  1.79790378e-01  1.22807734e-01  9.38422307e-02
   3.91433574e-02 -3.91241461e-02 -6.26763850e-02 -4.46078666e-02
   1.29920319e-01 -2.47526970e-02  7.09354505e-02  4.93376888e-02
   1.04384154e-01 -9.40883309e-02  1.38644814e-01  5.10415919e-02
   2.25261413e-02  2.26018261e-02 -6.43309951e-02  8.34632069e-02
   1.12696260e-01 -6.55405670e-02 -9.55607090e-03  1.81058675e-01
  -8.40443969e-02  1.08330427e-02  1.81126222e-01  5.58983360e-04
  -3.06420734e-05  6.09500855e-02  6.83147758e-02  2.64731832e-02
   2.39680186e-02 -5.66908568e-02 -1.10438876e-01  1.18711405e-01
   4.71462533e-02  1.35605991e-01  2.06545312e-02  3.31876092e-02
  -8.04793239e-02  1.41002759e-01  2.96091270e-02 -9.16506648e-02
  -1.86257601e-01  3.33678685e-02 -4.22156304e-02 -8.69797915e-03
   7.72187039e-02 -3.12651694e-02 -2.24208944e-02 -2.28546634e-01
  -3.27420165e-03  5.00987098e-02 -8.14643688e-03 -1.96164288e-02
  -9.08302329e-03  2.10512832e-01 -4.16340344e-02 -8.74057040e-02
  -6.90557808e-02 -1.37427777e-01  3.11448332e-02 -3.79933678e-02
  -5.22360019e-02 -7.84254596e-02 -7.61328563e-02 -4.75779846e-02
  -6.65083230e-02  5.76637052e-02  3.70382890e-02  1.32211372e-01
  -1.10407263e-01  1.33091792e-01 -1.34871647e-01  6.83086142e-02
   6.87135607e-02  1.13536373e-01  9.47410688e-02  2.22229362e-02
  -1.30129039e-01 -5.11953905e-02  7.73468427e-03 -3.14316861e-02
  -2.81576011e-02 -1.42889386e-02 -5.23731019e-03  7.21577182e-02
   1.37855992e-01 -1.12402715e-01  7.05709606e-02 -1.01522602e-01
   1.21826008e-01 -4.09294255e-02  1.65215284e-02  5.62557690e-02
   1.24211654e-01 -1.26606196e-01 -1.54543415e-01  7.42270276e-02
  -1.77578658e-01  1.29918335e-02  6.71061128e-02 -1.83087111e-01
  -6.05294667e-02  1.77970454e-01 -2.07538679e-02 -5.54998182e-02
   7.73050711e-02  7.91293457e-02  2.04588994e-02 -9.73988790e-03]
 [ 3.03774416e-01  4.24478315e-02  8.47237781e-02 -1.44816756e-01
  -5.59057631e-02  2.90002227e-01  6.64594546e-02  1.46260038e-01
  -2.09659055e-01 -7.30234161e-02  1.64406136e-01  8.49436969e-02
   6.82310164e-02 -5.04355729e-02 -5.05017396e-03  1.66183665e-01
  -6.71295598e-02  2.30261654e-01 -2.97246110e-02  5.94279990e-02
   1.95152223e-01 -2.98626032e-02 -1.27885178e-01  8.02125484e-02
   1.80553019e-01 -2.82421112e-02  1.06517963e-01  5.41139022e-02
   4.48335782e-02  5.82100498e-03  1.67627975e-01 -1.68018982e-01
  -5.02928533e-02  6.17678575e-02  5.76160736e-02  3.20419692e-03
   1.06153823e-01 -1.46446109e-01  3.18705179e-02  1.25181243e-01
  -2.79171113e-02  1.69174746e-05  1.77817941e-01 -1.23631097e-01
  -4.53703366e-02 -9.47845951e-02 -5.42670004e-02  2.34472565e-03
  -1.58325527e-02 -4.31643575e-02 -3.92363146e-02  5.10602817e-02
   8.92140344e-02 -6.97493972e-03 -7.64430091e-02  1.51753888e-01
   2.13556532e-02  6.68439418e-02  3.94084305e-02 -4.57252674e-02
  -1.10651910e-01  7.98564181e-02  7.91790313e-04  7.20222294e-02
  -2.50147469e-02 -4.52730395e-02 -5.99785410e-02 -5.80177233e-02
  -3.91854253e-03 -3.94419134e-02 -6.75168112e-02 -7.20952824e-02
  -6.06286190e-02  2.00967267e-01 -2.80436035e-02 -1.01553380e-01
  -9.29042622e-02 -2.27884337e-01  6.14016363e-03 -7.10816756e-02
  -2.17116140e-02 -2.95537990e-02 -1.43463299e-01 -7.36400783e-02
  -1.08938001e-01  1.55260600e-02  1.19674593e-01  1.28161669e-01
  -2.82845259e-01  1.85776412e-01 -3.02815307e-02  2.30638921e-01
   1.90379724e-01  1.20750368e-01 -4.03071381e-02 -2.65962537e-02
  -6.41390458e-02 -6.84611723e-02 -5.45344390e-02 -6.64040670e-02
  -1.06481716e-01 -1.70375451e-01  1.86283104e-02  1.21989660e-01
   2.00385209e-02 -2.25247383e-01  1.53311387e-01  8.74570478e-03
   1.64654791e-01 -4.30275835e-02 -1.95268132e-02  1.07038982e-01
  -7.39484355e-02 -1.01303063e-01 -5.00302687e-02  1.32844344e-01
  -1.90834194e-01  6.30107895e-02  3.26237418e-02 -2.03492910e-01
   5.56653440e-02  1.22181930e-01 -5.95003739e-02 -6.74914792e-02
  -2.16929857e-02  7.14398026e-02 -5.80481021e-03  7.84356520e-02]
 [ 3.73464584e-01 -1.68589950e-01  5.06014340e-02 -3.41575667e-02
  -1.15352146e-01  2.52921492e-01  7.40790600e-03  1.73200503e-01
  -8.79128724e-02  8.67185220e-02 -3.95945944e-02 -4.82485257e-02
   5.98730519e-02  1.71964522e-02  1.61641821e-01  1.68477237e-01
  -6.36864007e-02  1.21516138e-01  9.05463379e-03  7.23977238e-02
   1.32106751e-01 -5.37733436e-02 -4.46617231e-02  2.06438974e-01
   2.71914512e-01 -4.10878994e-02  1.50633343e-02 -4.50880229e-02
   3.82332951e-01 -1.87622249e-01  2.05734849e-01 -3.34422618e-01
  -7.88948536e-02 -7.84021169e-02  1.94661915e-02  4.90031913e-02
   2.38482475e-01 -2.58185178e-01 -3.85436639e-02  2.37016946e-01
  -3.56383761e-03  2.99231168e-02  2.92395890e-01 -2.36408070e-01
   8.86294339e-03 -3.77950408e-02 -9.09597706e-03 -2.06820760e-02
  -2.21072864e-02 -6.64836355e-03 -2.01021999e-01  7.13188499e-02
   7.35974079e-03 -2.22955823e-01 -3.59704196e-02  1.83789715e-01
  -6.57899752e-02 -3.49552892e-02  3.01395446e-01  1.49915200e-02
  -1.68238878e-01  1.27821654e-01  9.87809971e-02  8.33738502e-03
  -2.86696106e-03  7.76897296e-02 -1.89912379e-01  8.35362375e-02
  -8.70624110e-02 -3.83861773e-02  4.91874442e-02 -7.54323080e-02
  -1.08179986e-01  4.80972603e-02 -9.08624455e-02  6.21210970e-03
  -8.95952955e-02 -3.78446490e-01  8.29756856e-02 -2.42634062e-02
  -1.62932858e-01 -6.93556890e-02 -1.98466226e-01 -1.10386759e-01
   9.46748536e-03  5.58438562e-02  1.18121870e-01  2.05808163e-01
  -1.82600126e-01  2.30784088e-01 -1.34383574e-01  1.35982141e-01
   9.87719819e-02  2.99612105e-01  1.04558349e-01 -1.60993040e-01
  -1.51445463e-01 -6.20123409e-02 -1.23939864e-01  2.15726793e-02
  -1.44777864e-01  5.31880148e-02  1.26072973e-01 -1.57166682e-02
  -1.21538003e-04 -1.09439895e-01  8.88949186e-02  5.35389073e-02
   4.07648087e-02  1.28169507e-01 -1.66280139e-02 -1.25833139e-01
  -9.89500731e-02 -1.65739387e-01 -2.68174969e-02  7.69141614e-02
  -2.56788969e-01  2.29101758e-02 -3.97510976e-02 -2.62520872e-02
   9.88793299e-02 -1.97941586e-02 -9.78648216e-02 -1.04688652e-01
   2.87237614e-02  2.88549513e-02 -3.29904929e-02 -1.00218304e-01]
 [ 2.55247444e-01 -1.08916245e-01 -8.42091367e-02 -2.52158284e-01
  -3.07602674e-01  4.32484567e-01  2.00822130e-01  3.30768436e-01
  -1.87373653e-01  1.25405759e-01  7.70174786e-02  8.42636898e-02
   1.05018159e-02 -3.46171409e-02  6.84351772e-02  1.13981262e-01
  -3.32155786e-02  2.26102054e-01  1.66777581e-01  1.17601506e-01
   2.52977163e-01 -5.02764694e-02 -3.89426649e-02  2.03085944e-01
   1.55343905e-01 -4.77003455e-02  1.87644497e-01  3.38206887e-02
   4.03569847e-01 -1.51351333e-01  3.56010854e-01 -3.01959217e-01
   2.63528414e-02  2.24486347e-02  1.01807468e-01  1.41417282e-02
   2.55623132e-01 -2.57457644e-01 -2.81806029e-02  4.00999486e-01
  -1.67292189e-02 -1.79659143e-01  1.13221034e-02 -3.15513939e-01
  -9.57145393e-02 -7.13940188e-02  7.50446320e-02 -9.38259810e-02
  -1.28994090e-02 -9.88673866e-02 -2.37701446e-01  2.11191520e-01
   2.95956843e-02 -6.88847080e-02 -9.29352641e-02  3.15935254e-01
   6.15289286e-02  2.91056335e-01  2.55904675e-01 -4.92406972e-02
  -3.10755491e-01 -7.74177909e-03  2.36635525e-02  9.71007943e-02
   3.35659795e-02  1.22545071e-01 -1.64321110e-01  1.91531014e-02
  -8.39646384e-02 -6.60032779e-02 -4.41520922e-02  2.09934413e-01
  -1.75425664e-01  2.44101316e-01  1.03642404e-01 -6.40838081e-03
  -1.54487580e-01 -4.01368290e-01  1.24738462e-01 -1.12232314e-02
  -2.29063779e-01 -1.45172760e-01 -8.83768871e-02 -1.32454827e-01
  -3.65761966e-02 -2.09087670e-01  1.95994899e-01  1.89287096e-01
  -8.82334337e-02  4.19431478e-01  1.76811386e-02  2.52123892e-01
   1.80231541e-01  4.60782140e-01  1.38150807e-02 -8.17089230e-02
  -1.45462126e-01 -7.29765221e-02 -2.92346478e-01 -2.73018237e-02
  -2.34604850e-01  1.66774720e-01  1.10209137e-01  7.89132938e-02
   1.92494720e-01 -1.40949324e-01  1.63037688e-01 -1.06247626e-01
   2.79029936e-01 -1.22919539e-02  3.03582512e-02 -9.98584926e-02
  -9.60065350e-02 -7.54202381e-02 -1.82874382e-01  6.82759136e-02
  -3.16245854e-01 -9.32696834e-03  8.17820802e-02 -1.54085308e-01
   9.41701829e-02  1.25828385e-01 -1.65601727e-02 -1.99384332e-01
   3.43516446e-03  9.72160324e-03  1.31744713e-01 -8.44034180e-02]
 [ 1.64348274e-01 -1.99863553e-01  2.27579405e-03 -2.18400493e-01
  -8.63903984e-02  3.99225563e-01  2.00205967e-01  2.67598987e-01
  -2.47582383e-02  2.29049161e-01 -7.93402940e-02  5.29399328e-02
  -2.13834122e-02 -8.32417607e-02  4.16392013e-02  1.56265333e-01
  -4.09477809e-03 -1.02604456e-01  6.43597767e-02  1.23874895e-01
   5.91517538e-02  2.48258431e-02 -1.68813586e-01  9.59714781e-03
   2.89884090e-01 -8.55855569e-02  2.62575328e-01  1.85836516e-02
   3.53579581e-01 -1.36408776e-01  1.16785623e-01 -2.46034767e-02
  -6.66983053e-02 -4.82027829e-02  2.89399385e-01 -3.18298908e-03
   1.89847812e-01 -8.92421901e-02  5.97595759e-02  3.99689019e-01
  -1.98496267e-01 -8.57668072e-02  8.00821185e-02 -3.11194032e-01
   1.10291712e-01  7.66674988e-03  6.84611499e-02 -2.03790050e-02
   1.15041039e-03 -1.47593375e-02 -2.00548381e-01  2.77340591e-01
   6.71219528e-02 -9.14232358e-02 -9.12004560e-02  3.62637699e-01
   6.47779256e-02  2.43854895e-01  2.23892674e-01  4.57321517e-02
  -3.88742030e-01  4.76309918e-02  1.41705666e-02 -5.33650108e-02
  -2.11814437e-02 -8.04745108e-02 -2.38678589e-01 -1.15081497e-01
  -8.28317776e-02  3.31358090e-02  1.98165774e-02  1.30405426e-01
  -8.65034107e-03  2.77593255e-01  1.25666901e-01  7.08969831e-02
  -2.75387973e-01 -1.77888155e-01  1.98966190e-01 -1.11985944e-01
  -2.42679313e-01 -1.26574069e-01 -1.53871179e-01 -2.48771355e-01
  -1.23537026e-01 -3.55429679e-01  2.64151841e-01  2.40722284e-01
   1.45164030e-02  1.40062064e-01  5.25668859e-02  1.53296173e-01
   2.74624050e-01  2.22135633e-01 -4.21006605e-02  1.21867768e-02
  -9.38590989e-02  3.35690491e-02 -1.81468979e-01  1.60853844e-02
  -1.30326509e-01  5.40895984e-02  1.05978839e-01  4.76338938e-02
  -1.29163275e-02 -1.47453517e-01  2.36672342e-01 -3.04824859e-01
   2.51872778e-01  1.26696423e-01  2.01593321e-02 -6.23915307e-02
  -2.73246437e-01 -8.88303891e-02 -2.55187571e-01 -4.03675511e-02
  -1.80769369e-01 -9.29931775e-02  7.28670806e-02 -3.07113558e-01
   5.49980476e-02 -8.41791481e-02 -5.27274311e-02 -3.81241709e-01
   1.02183796e-01  5.08568510e-02  1.08739458e-01 -7.68143758e-02]
 [-5.02540916e-02  1.22606561e-01  4.38650418e-03 -1.74245134e-01
  -1.06514528e-01  2.37471774e-01  1.57608435e-01 -5.58994859e-02
  -1.22111037e-01  2.39755824e-01 -1.42737627e-01  1.11669183e-01
   6.69632666e-03 -9.27016065e-02 -1.60972342e-01  1.94096461e-01
  -2.13141255e-02 -1.39363036e-01 -8.84136930e-02  8.31806734e-02
   1.78615883e-01 -2.06134304e-01  4.51164767e-02  5.43152839e-02
  -1.09643981e-01  2.89026409e-01  9.93736386e-02 -1.08070411e-01
  -7.06888884e-02  6.77376986e-02 -1.09188505e-01 -1.16021112e-01
   1.10288141e-02  1.55568376e-01 -3.00080441e-02 -8.56100917e-02
  -1.26861138e-02  1.07540213e-01 -2.51713954e-02  2.71485299e-01
  -1.20096363e-01 -7.64895305e-02  1.30041420e-01 -4.12045419e-02
   1.60733163e-01  2.07947880e-01 -5.54348342e-02 -4.53746207e-02
  -2.77489405e-02  4.34295833e-02 -2.03556661e-02  4.78944838e-01
   4.49366830e-02  9.48449317e-03  4.47405875e-02  2.42178328e-02
  -1.38904884e-01  2.40166098e-01  2.96369970e-01 -1.80499643e-01
  -1.37459949e-01 -9.06907097e-02  1.28331378e-01 -2.04874221e-02
   9.50607657e-03  7.72506185e-03 -2.26540193e-01 -5.32036126e-01
   1.76295340e-02 -2.59049870e-02 -5.01956530e-02  3.41202170e-01
   2.85073221e-01 -1.97886854e-01  3.08273196e-01 -2.28185374e-02
  -2.78679818e-01  6.73928037e-02  2.38881245e-01  1.56326711e-01
  -4.12645414e-02  1.23299314e-02 -1.46497905e-01 -2.15265416e-02
   5.19710891e-02 -9.78952041e-04  9.11692157e-03  6.82836697e-02
   1.81574017e-01 -1.72251865e-01  2.46483073e-01 -1.42049447e-01
   4.60677803e-01  5.15227988e-02  1.19716371e-03  1.95287898e-01
   3.77915017e-02 -1.61177933e-01 -3.37863527e-02 -4.29508463e-02
  -1.50034741e-01 -1.87552676e-01 -1.65966943e-01 -1.67186707e-01
  -1.62112683e-01 -2.71596849e-01  5.89516051e-02 -2.43676826e-01
  -2.20779981e-02 -1.00575835e-01 -1.41573012e-01  1.17648259e-01
  -3.12777787e-01  2.42194161e-02  9.66237951e-03 -3.38822864e-02
   1.36168420e-01  1.18722931e-01  2.42225438e-01 -2.22871408e-01
   3.31174172e-02 -8.49833116e-02  1.03894703e-01 -2.57289320e-01
  -2.88876798e-02  1.43693671e-01  2.07104813e-02  2.66794175e-01]
 [ 2.50711441e-01  1.24408804e-01 -2.55204160e-02 -2.08066747e-01
  -1.68971047e-01  2.87133068e-01  1.59891322e-01  4.55053821e-02
  -6.24288060e-02  2.30707094e-01  5.80332130e-02 -3.29328589e-02
  -8.49069841e-03 -2.24995226e-01 -1.87479153e-01  1.08992293e-01
   5.59080914e-02 -7.55466297e-02  6.61294833e-02  1.61931328e-02
  -6.62666559e-02 -2.20470384e-01 -2.35611871e-01  4.45087105e-02
  -9.65342447e-02  1.90023765e-01  1.38241932e-01 -1.16413876e-01
  -3.05968653e-02 -3.48439626e-02  1.29117653e-01 -1.53757200e-01
   1.46491736e-01  8.55899900e-02 -4.75786738e-02 -6.42145798e-02
   2.11068228e-01 -2.61070877e-01  6.33300468e-02  6.25122562e-02
  -1.73548222e-01 -1.28456578e-01  1.41052678e-01 -1.68718085e-01
  -2.08910145e-02  2.42467642e-01 -6.82609752e-02 -1.47781208e-01
   1.24549009e-01 -1.26632690e-01 -3.77594493e-02  4.96401340e-01
  -3.75722870e-02 -1.30521551e-01  1.98368922e-01  8.26560035e-02
  -1.11740015e-01  3.04194808e-01  1.94308624e-01 -2.16365948e-01
  -2.43736029e-01  2.99497005e-02  1.07801802e-01 -4.35494147e-02
   1.18103931e-02 -2.49560386e-01 -1.16110779e-01 -3.34758759e-01
   5.09314276e-02  1.79908052e-02  1.16272189e-01  1.76034436e-01
   4.04905193e-02 -3.62528563e-02  1.93018720e-01 -2.72371061e-02
  -1.95573121e-01 -4.87409443e-01  7.15112686e-02  7.83083737e-02
  -2.63406545e-01  8.97932202e-02 -3.46707134e-03  4.92293388e-02
  -3.35606277e-01  4.55920696e-02  3.73597920e-01  4.88826632e-02
   1.91948682e-01 -4.41655442e-02  1.39919117e-01 -7.44087100e-02
   3.80714327e-01  3.40410054e-01 -6.47219643e-02  2.01936036e-01
  -2.74032623e-01 -1.66083723e-01 -2.46471494e-01 -1.60431638e-02
  -1.35141343e-01 -2.17247084e-01 -2.78714061e-01 -4.45941724e-02
  -2.85368800e-01 -2.52122968e-01  4.61677074e-01 -2.73280084e-01
   1.40510648e-01 -1.10828705e-01 -1.13560647e-01  3.19059417e-02
  -5.57305068e-02 -1.57060102e-02 -2.43553191e-01  7.91695565e-02
  -7.00037107e-02  1.01681069e-01  2.15111539e-01 -9.58893672e-02
  -2.46575922e-02 -3.17912906e-01  1.63127407e-01 -1.35539487e-01
  -2.13137880e-01  3.25464010e-01  2.83784598e-01 -5.92270307e-02]
 [ 2.61502683e-01  3.03840451e-02 -3.08088630e-01 -1.85880601e-01
  -1.71228543e-01  2.61908650e-01  1.79742835e-02  7.29112774e-02
   1.49420053e-01  1.89582020e-01  6.16902113e-02 -1.26275107e-01
  -8.55567977e-02 -1.39491439e-01  5.23601025e-02  2.09645554e-02
   1.13519765e-01 -7.40863755e-02  8.36905837e-02  9.66455862e-02
   3.24724019e-02 -1.11802526e-01  1.69342738e-02  1.64174482e-01
   1.68920323e-01  1.78908154e-01 -1.79515276e-02 -6.36825189e-02
   2.09330305e-01 -8.80162269e-02  2.44606793e-01 -2.24190384e-01
   1.87115565e-01 -1.25669986e-01 -2.98869759e-02  1.23786345e-01
   9.24824402e-02 -2.74539828e-01  1.69748500e-01  1.47769719e-01
  -1.96723655e-01 -3.32478583e-02  1.70438543e-01 -2.44717091e-01
  -7.79957548e-02  2.75625214e-02 -2.68795434e-02 -3.21014859e-02
   6.74405470e-02 -1.59655377e-01 -5.83201125e-02  5.03754497e-01
  -2.57333964e-02 -1.52554005e-01 -1.44391239e-01  3.42972219e-01
  -8.07304829e-02  3.85918468e-01  1.35820722e-02 -7.09956139e-03
  -1.97686870e-02  3.45432200e-02 -5.99814532e-03 -7.32263699e-02
  -4.20700274e-02 -4.04518507e-02 -1.06090218e-01 -2.04903230e-01
   4.81141843e-02  4.29415256e-02  1.68899912e-02  7.42508098e-02
  -2.28986204e-01  1.75191909e-01  9.26691294e-02 -1.15508385e-01
  -9.23873857e-02 -3.42300415e-01 -3.61115932e-02 -1.02856785e-01
  -8.18461105e-02  6.24162890e-02 -1.46205634e-01  2.47919559e-02
  -3.65754515e-01 -5.09882122e-02  2.25156024e-01  2.63357937e-01
   2.28037611e-01  1.19586632e-01  5.20434715e-02  1.34508908e-01
   9.37604755e-02  3.78005564e-01  5.15365452e-02  5.05768806e-02
  -2.64031559e-01  1.76162884e-01 -5.62155470e-02 -6.49109036e-02
  -1.49030373e-01 -2.54674971e-01 -7.85581097e-02  1.31357670e-01
   1.80012491e-02 -1.28550559e-01  3.80723268e-01 -8.10474157e-02
   8.42209905e-02 -4.14537005e-02 -2.44162455e-02 -1.21529035e-01
   5.54465353e-02 -1.12406537e-01 -1.12362064e-01  3.08763236e-01
  -6.32519498e-02  8.66098478e-02  2.14570597e-01  7.65682980e-02
   2.89055556e-02 -6.04468957e-02  1.90771855e-02 -4.88400571e-02
  -4.13800925e-02  2.98876524e-01  7.91154280e-02  4.21556495e-02]
 [ 2.31240973e-01  1.55469570e-02 -4.25777674e-01 -2.55262524e-01
  -1.00859262e-01  3.88411909e-01  1.27267629e-01  2.68425643e-01
   2.36446708e-01  8.13550223e-03  2.33459100e-02 -1.30943060e-01
  -1.21150268e-02 -6.54541925e-02  3.86951596e-01  1.48048297e-01
   4.28566150e-02 -9.98475775e-02  1.11253418e-01  1.31720491e-02
   9.82016101e-02 -2.76034679e-02  3.63184884e-02  1.88982517e-01
   2.40033358e-01 -1.00934237e-01 -6.42248914e-02 -5.34248203e-02
   3.27620387e-01 -4.94638458e-02  1.31375983e-01 -1.40922502e-01
   1.48446545e-01 -1.46194503e-01 -5.62763438e-02  2.34531254e-01
   2.02788249e-01 -2.20021740e-01  1.21868037e-01  2.35225052e-01
  -1.14770941e-02 -3.54829021e-02  1.09750733e-01 -1.71109617e-01
   6.75778389e-02 -8.41272026e-02  2.46129230e-01 -1.09605588e-01
   1.61545984e-02 -1.49396613e-01 -1.81458950e-01  3.18256110e-01
   2.83528082e-02 -9.94846076e-02 -1.64833635e-01  2.32032135e-01
   1.60909772e-01  3.48687470e-01  9.08719301e-02  1.12229204e-02
  -6.36058450e-02 -1.40787354e-02  1.70535758e-01 -2.11976208e-02
  -7.64782354e-02  1.15343027e-01 -3.52672264e-02 -7.54447579e-02
  -8.22248384e-02  3.18083093e-02 -4.48439084e-02 -2.90347319e-02
  -3.18366408e-01  3.85300756e-01  6.00804463e-02 -9.42572728e-02
   1.12725087e-01 -3.62789512e-01  6.13308735e-02 -1.49370745e-01
  -4.40453105e-02 -1.44457191e-01 -1.02147982e-01 -1.29364133e-02
  -1.67961895e-01 -1.11135490e-01  2.97850758e-01  2.04307631e-01
  -9.41151194e-03  3.16549629e-01 -4.26649721e-03  2.77557343e-01
  -2.62520444e-02  3.07956904e-01  6.16823882e-02 -1.24372728e-01
  -1.53678402e-01  2.48473734e-01 -3.00982669e-02 -6.22107415e-03
  -2.03184605e-01 -1.62117109e-01  1.21645115e-01  2.96182722e-01
   2.05592081e-01  8.28504912e-04  1.64295927e-01 -1.21331789e-01
   1.90282896e-01  1.36379693e-02  2.29338137e-03 -1.10468060e-01
   2.49134675e-02 -2.14990061e-02  1.83837749e-02  3.19523782e-01
  -2.42906183e-01 -1.18151112e-02 -4.42716703e-02 -6.82929009e-02
  -7.95955956e-02  9.39183775e-03 -7.35322833e-02  4.20485483e-03
   9.92389768e-02  2.86542237e-01  5.69480546e-02  8.72142520e-03]
 [ 2.17725769e-01  2.09201902e-01 -1.45500511e-01 -4.00395572e-01
  -1.01435468e-01  2.81664222e-01  2.95672059e-01  2.13536814e-01
  -1.21339567e-01 -7.91273117e-02  1.27810284e-01  8.95778984e-02
  -6.58689067e-02 -4.74363640e-02  2.40589410e-01  1.58784866e-01
  -7.41857886e-02 -4.50251289e-02  1.10837437e-01  1.12695605e-01
   2.86787838e-01 -4.98371609e-02 -1.12005085e-01  6.74057007e-02
   2.94882566e-01 -7.42034838e-02  3.02376658e-01 -6.69920817e-02
   1.92748696e-01  4.70446199e-02  3.47385377e-01 -1.26043528e-01
   1.64390411e-02  1.18172921e-01  1.71023890e-01  3.74196619e-01
   2.30176985e-01 -1.52592719e-01 -1.07215852e-01  2.45530605e-01
  -1.71672180e-01 -1.47898883e-01  1.40791729e-01 -1.80001378e-01
  -1.29242733e-01 -6.36755973e-02  9.83911678e-02 -2.90909763e-02
  -1.32494673e-01 -1.94523130e-02 -2.63791114e-01  3.08171630e-01
   1.95609424e-02  6.07641898e-02  2.96715777e-02  2.49543265e-01
   1.44737437e-01  2.61643589e-01  1.00107200e-01 -1.37966439e-01
  -2.09992692e-01 -1.59039766e-01  2.24929094e-01  2.76246052e-02
  -5.20804003e-02 -8.39806050e-02 -5.28884083e-02 -1.46250784e-01
  -3.88397612e-02  7.66233280e-02 -1.51940927e-01  1.23779677e-01
  -2.62279510e-01  2.66111344e-01  6.72007576e-02 -5.22978082e-02
  -1.64027959e-01 -3.80237490e-01  7.07366690e-02 -2.64004648e-01
  -3.20453360e-03 -6.09842278e-02 -7.71581829e-02 -1.86377838e-02
  -8.07649940e-02 -1.85064286e-01  3.76934618e-01  1.88132823e-01
  -2.63535947e-01  1.75584868e-01 -2.85366960e-02  3.05029035e-01
  -1.22040196e-03  2.52702624e-01 -2.39107385e-02 -6.24248721e-02
  -2.63595998e-01  3.64608574e-03 -2.37058610e-01  1.47805922e-02
   2.67627127e-02 -3.98265608e-02  1.10754892e-01  2.26691961e-01
   2.18824416e-01 -1.12870142e-01  2.72869110e-01  5.12478687e-03
   2.85779625e-01 -7.27330744e-02 -1.50069045e-02  2.25734234e-01
  -1.63208097e-02 -1.46907941e-01  1.43591138e-02 -6.11248873e-02
  -1.57155111e-01 -2.69824266e-02 -1.11641770e-03 -2.10010946e-01
  -5.42826429e-02  2.15604678e-01 -5.38149588e-02 -1.65454715e-01
  -4.57522161e-02  1.16057105e-01  1.76388055e-01  1.19198225e-01]
 [ 2.06992790e-01  6.27714247e-02  6.18199408e-02 -2.06119925e-01
   5.39437197e-02  7.38614649e-02  2.08471850e-01  2.08568558e-01
  -1.18933573e-01  8.12758356e-02  6.39645159e-02 -3.19352522e-02
  -1.61023065e-02 -1.13212116e-01  2.52222538e-01  1.17022276e-01
   2.58257389e-02 -1.09068165e-02 -1.80612728e-02  8.98773745e-02
   1.83341280e-01 -8.10701251e-02 -2.81170726e-01  1.34289982e-02
   1.87684521e-01  3.33867520e-02  1.80545285e-01 -2.74435170e-02
   1.69280395e-01 -1.32444739e-01  2.70547986e-01 -2.93219060e-01
   1.01729818e-02  3.75373363e-01  8.74304771e-02  2.62831628e-01
   1.97214261e-01 -1.03569468e-02 -1.90563262e-01  2.40411058e-01
